{"learner":{"attributes":{"scikit_learn":"{\"_estimator_type\": \"regressor\"}"},"feature_names":["distance_km","traffic_index","pop_density","hour_of_day","road_type"],"feature_types":["float","float","float","int","int"],"gradient_booster":{"model":{"cats":{"enc":[],"feature_segments":[],"sorted_idx":[]},"gbtree_model_param":{"num_parallel_tree":"1","num_trees":"100"},"iteration_indptr":[0,1,2,3,4,5,6,7,8,9,10,11,12,13,14,15,16,17,18,19,20,21,22,23,24,25,26,27,28,29,30,31,32,33,34,35,36,37,38,39,40,41,42,43,44,45,46,47,48,49,50,51,52,53,54,55,56,57,58,59,60,61,62,63,64,65,66,67,68,69,70,71,72,73,74,75,76,77,78,79,80,81,82,83,84,85,86,87,88,89,90,91,92,93,94,95,96,97,98,99,100],"tree_info":[0,0,0,0,0,0,0,0,0,0,0,0,0,0,0,0,0,0,0,0,0,0,0,0,0,0,0,0,0,0,0,0,0,0,0,0,0,0,0,0,0,0,0,0,0,0,0,0,0,0,0,0,0,0,0,0,0,0,0,0,0,0,0,0,0,0,0,0,0,0,0,0,0,0,0,0,0,0,0,0,0,0,0,0,0,0,0,0,0,0,0,0,0,0,0,0,0,0,0,0],"trees":[{"base_weights":[-6.622897E-7,-1.5010276E1,1.3015628E1,-2.110544E1,-8.353487E0,2.1429644E1,-3.8647254E0,-2.4209824E1,-1.7287115E1,-4.180875E0,-1.641244E1,7.334141E0,3.3202133E1,-1.0687234E1,2.8302047E0,-2.5791574E0,-2.1542612E1,-1.4943064E1,-2.194446E1,-1.1244384E1,1.3669268E0,-1.9554222E1,-1.2976561E1,-1.9962356E0,1.6465544E1,1.8076656E1,4.6050304E1,-1.4156293E1,-7.278602E0,-2.468556E0,8.1634865E0,-2.3136938E0,-1.8677609E0,-1.9255733E0,-1.1873219E0,-2.2900183E0,-1.8344691E0,-1.4960078E0,-7.0180565E-1,-4.4592252E-1,7.5649446E-1,-2.1227596E0,-1.7590004E0,-1.4551524E0,-8.211011E-1,-4.5705232E-1,5.6704843E-1,6.774277E-1,2.2284112E0,1.0813053E0,2.8103187E0,3.06556E0,5.701821E0,-1.632141E0,-1.0895668E0,-1.1041721E0,-3.5830826E-1,-5.2607054E-1,9.439416E-2,5.099077E-1,1.2379855E0],"categories":[],"categories_nodes":[],"categories_segments":[],"categories_sizes":[],"default_left":[0,0,0,0,0,0,0,0,0,0,0,0,0,0,0,0,0,0,0,0,0,0,0,0,0,0,0,0,0,0,0,0,0,0,0,0,0,0,0,0,0,0,0,0,0,0,0,0,0,0,0,0,0,0,0,0,0,0,0,0,0],"id":0,"left_children":[1,3,5,7,9,11,13,15,17,19,21,23,25,27,29,-1,31,33,35,37,39,41,43,45,47,49,51,53,55,57,59,-1,-1,-1,-1,-1,-1,-1,-1,-1,-1,-1,-1,-1,-1,-1,-1,-1,-1,-1,-1,-1,-1,-1,-1,-1,-1,-1,-1,-1,-1],"loss_changes":[9.772316E5,9.407766E4,3.805854E5,1.3948E4,3.7324477E4,2.9645562E5,4.0773434E4,2.254125E3,5.6437188E3,2.877859E4,3.8374766E3,6.94704E4,1.8844962E5,5.1235E3,1.2765314E4,0E0,7.280625E2,4.630172E3,2.0260938E2,4.9673164E3,1.4911298E4,2.7083594E2,1.261543E3,7.999399E3,2.3081422E4,3.2396219E4,8.7065875E4,1.3611641E3,3.0894385E3,2.1678682E3,2.8440273E3,0E0,0E0,0E0,0E0,0E0,0E0,0E0,0E0,0E0,0E0,0E0,0E0,0E0,0E0,0E0,0E0,0E0,0E0,0E0,0E0,0E0,0E0,0E0,0E0,0E0,0E0,0E0,0E0,0E0,0E0],"parents":[2147483647,0,0,1,1,2,2,3,3,4,4,5,5,6,6,7,7,8,8,9,9,10,10,11,11,12,12,13,13,14,14,16,16,17,17,18,18,19,19,20,20,21,21,22,22,23,23,24,24,25,25,26,26,27,27,28,28,29,29,30,30],"right_children":[2,4,6,8,10,12,14,16,18,20,22,24,26,28,30,-1,32,34,36,38,40,42,44,46,48,50,52,54,56,58,60,-1,-1,-1,-1,-1,-1,-1,-1,-1,-1,-1,-1,-1,-1,-1,-1,-1,-1,-1,-1,-1,-1,-1,-1,-1,-1,-1,-1,-1,-1],"split_conditions":[7.42E0,4.06E0,3E0,2.52E0,3E0,4.6E0,5E0,1.71E0,3E0,4.6E0,5.1E0,2E0,2E0,2.5E0,1.12E1,-2.5791574E0,6.3E0,4.3E0,7.6E0,2E0,2E0,2.4E0,6.67E0,1.276E1,1.069E1,1.177E1,1.056E1,1.171E1,1.12E1,9.56E0,7.9E0,-2.3136938E0,-1.8677609E0,-1.9255733E0,-1.1873219E0,-2.2900183E0,-1.8344691E0,-1.4960078E0,-7.0180565E-1,-4.4592252E-1,7.5649446E-1,-2.1227596E0,-1.7590004E0,-1.4551524E0,-8.211011E-1,-4.5705232E-1,5.6704843E-1,6.774277E-1,2.2284112E0,1.0813053E0,2.8103187E0,3.06556E0,5.701821E0,-1.632141E0,-1.0895668E0,-1.1041721E0,-3.5830826E-1,-5.2607054E-1,9.439416E-2,5.099077E-1,1.2379855E0],"split_indices":[0,0,4,0,4,1,1,0,4,1,1,4,4,1,0,0,1,1,1,4,4,1,0,0,0,0,0,0,0,0,1,0,0,0,0,0,0,0,0,0,0,0,0,0,0,0,0,0,0,0,0,0,0,0,0,0,0,0,0,0,0],"split_type":[0,0,0,0,0,0,0,0,0,0,0,0,0,0,0,0,0,0,0,0,0,0,0,0,0,0,0,0,0,0,0,0,0,0,0,0,0,0,0,0,0,0,0,0,0,0,0,0,0,0,0,0,0,0,0,0,0,0,0,0,0],"sum_hessian":[5E3,2.322E3,2.678E3,1.211E3,1.111E3,1.787E3,8.91E2,6.65E2,5.46E2,7.33E2,3.78E2,8.14E2,9.73E2,4.41E2,4.5E2,4.12E2,2.53E2,3.66E2,1.8E2,3.22E2,4.11E2,1.95E2,1.83E2,4.03E2,4.11E2,4.48E2,5.25E2,2.17E2,2.24E2,2.26E2,2.24E2,1.58E2,9.5E1,1.5E2,2.16E2,1.38E2,4.2E1,1.7E2,1.52E2,2.12E2,1.99E2,1E2,9.5E1,1.36E2,4.7E1,3.02E2,1.01E2,1.55E2,2.56E2,2.61E2,1.87E2,2.2E2,3.05E2,1.28E2,8.9E1,1.1E2,1.14E2,1.24E2,1.02E2,1.31E2,9.3E1],"tree_param":{"num_deleted":"0","num_feature":"5","num_nodes":"61","size_leaf_vector":"1"}},{"base_weights":[-1.8474283E-3,-1.3518738E1,1.1718846E1,-1.8919E1,-7.4137535E0,1.9295446E1,-3.481468E0,-2.1544079E1,-1.5135337E1,-3.6464963E0,-1.4725199E1,7.171346E0,3.0448166E1,-9.627976E0,2.5501025E0,-2.321866E0,-1.9265657E1,-1.2858162E1,-1.9509014E1,-9.150043E0,2.3606815E0,-1.8147064E0,-1.2044414E1,-1.4046817E0,1.5553006E1,1.6775555E1,4.1998623E1,-1.2921655E1,-6.698234E0,-3.7235093E0,6.252274E0,-1.7795719E0,-2.2131941E0,-1.6908802E0,-9.8579115E-1,-2.1018846E0,-1.7276049E0,-1.2842699E0,-5.20697E-1,-3.082218E-1,8.4197664E-1,-1.3393853E0,-7.7688426E-1,-6.536183E-1,2.2840755E-1,7.916297E-1,2.216809E0,1.0150282E0,2.602369E0,3.0389624E0,5.4146953E0,-1.4829172E0,-1.0065389E0,-9.5685655E-1,-2.6295075E-1,-6.490696E-1,-5.9847023E-2,3.9773083E-1,1.0808297E0],"categories":[],"categories_nodes":[],"categories_segments":[],"categories_sizes":[],"default_left":[0,0,0,0,0,0,0,0,0,0,0,0,0,0,0,0,0,0,0,0,0,0,0,0,0,0,0,0,0,0,0,0,0,0,0,0,0,0,0,0,0,0,0,0,0,0,0,0,0,0,0,0,0,0,0,0,0,0,0],"id":1,"left_children":[1,3,5,7,9,11,13,15,17,19,21,23,25,27,29,-1,31,33,35,37,39,-1,41,43,45,47,49,51,53,55,57,-1,-1,-1,-1,-1,-1,-1,-1,-1,-1,-1,-1,-1,-1,-1,-1,-1,-1,-1,-1,-1,-1,-1,-1,-1,-1,-1,-1],"loss_changes":[7.924535E5,7.644559E4,3.0859875E5,1.19106875E4,3.0024453E4,2.41549E5,3.3093758E4,2.3188438E3,4.8086406E3,2.3891484E4,3.1847188E3,6.1696043E4,1.4632356E5,4.178582E3,1.04982E4,0E0,9.248906E2,3.9288516E3,2.1675781E2,5.4224023E3,1.1436682E4,0E0,1.1133359E3,8.059695E3,2.1749094E4,2.5960023E4,6.9433625E4,9.785508E2,2.7309883E3,1.4489067E3,2.9006152E3,0E0,0E0,0E0,0E0,0E0,0E0,0E0,0E0,0E0,0E0,0E0,0E0,0E0,0E0,0E0,0E0,0E0,0E0,0E0,0E0,0E0,0E0,0E0,0E0,0E0,0E0,0E0,0E0],"parents":[2147483647,0,0,1,1,2,2,3,3,4,4,5,5,6,6,7,7,8,8,9,9,10,10,11,11,12,12,13,13,14,14,16,16,17,17,18,18,19,19,20,20,22,22,23,23,24,24,25,25,26,26,27,27,28,28,29,29,30,30],"right_children":[2,4,6,8,10,12,14,16,18,20,22,24,26,28,30,-1,32,34,36,38,40,-1,42,44,46,48,50,52,54,56,58,-1,-1,-1,-1,-1,-1,-1,-1,-1,-1,-1,-1,-1,-1,-1,-1,-1,-1,-1,-1,-1,-1,-1,-1,-1,-1,-1,-1],"split_conditions":[7.42E0,4.14E0,3E0,2.71E0,3E0,4.9E0,5E0,1.71E0,3E0,5.4E0,4.1E0,2E0,2E0,2.3E0,1.038E1,-2.321866E0,3E0,4.5E0,5.8E0,2E0,2E0,-1.8147064E0,6.67E0,2E0,2.3E0,1.177E1,1.125E1,1.171E1,1.177E1,7.7E0,1.367E1,-1.7795719E0,-2.2131941E0,-1.6908802E0,-9.8579115E-1,-2.1018846E0,-1.7276049E0,-1.2842699E0,-5.20697E-1,-3.082218E-1,8.4197664E-1,-1.3393853E0,-7.7688426E-1,-6.536183E-1,2.2840755E-1,7.916297E-1,2.216809E0,1.0150282E0,2.602369E0,3.0389624E0,5.4146953E0,-1.4829172E0,-1.0065389E0,-9.5685655E-1,-2.6295075E-1,-6.490696E-1,-5.9847023E-2,3.9773083E-1,1.0808297E0],"split_indices":[0,0,4,0,4,1,1,0,4,1,1,4,4,1,0,0,4,1,1,4,4,0,0,1,1,0,0,0,0,1,0,0,0,0,0,0,0,0,0,0,0,0,0,0,0,0,0,0,0,0,0,0,0,0,0,0,0,0,0],"split_type":[0,0,0,0,0,0,0,0,0,0,0,0,0,0,0,0,0,0,0,0,0,0,0,0,0,0,0,0,0,0,0,0,0,0,0,0,0,0,0,0,0,0,0,0,0,0,0,0,0,0,0,0,0,0,0,0,0,0,0],"sum_hessian":[5E3,2.322E3,2.678E3,1.231E3,1.091E3,1.787E3,8.91E2,7.24E2,5.07E2,7.21E2,3.7E2,8.57E2,9.3E2,4.41E2,4.5E2,4.12E2,3.12E2,3.36E2,1.71E2,3.76E2,3.45E2,1.6E2,2.1E2,4.24E2,4.33E2,4.27E2,5.03E2,2.06E2,2.35E2,1.67E2,2.83E2,2.11E2,1.01E2,1.41E2,1.95E2,9.7E1,7.4E1,1.93E2,1.83E2,1.82E2,1.63E2,1.58E2,5.2E1,1.77E2,2.47E2,2.02E2,2.31E2,2.5E2,1.77E2,2.59E2,2.44E2,1.21E2,8.5E1,1.37E2,9.8E1,8.8E1,7.9E1,1.9E2,9.3E1],"tree_param":{"num_deleted":"0","num_feature":"5","num_nodes":"59","size_leaf_vector":"1"}},{"base_weights":[-2.9241433E-3,-1.2174623E1,1.0551334E1,-1.6745813E1,-6.267368E0,1.7374098E1,-3.136617E0,-1.939838E1,-1.3429817E1,-2.8294466E0,-1.2994638E1,7.422507E0,2.8646877E1,-8.673572E0,2.2967982E0,-2.0902416E1,-1.7351849E1,-1.1318923E1,-1.7436693E1,-8.667665E0,1.6949362E0,-1.5189277E1,-9.542583E0,-5.644415E-1,1.5097728E1,1.6039999E1,3.9325924E1,-1.1502053E1,-5.8945365E0,-2.054529E0,6.676596E0,-1.9995247E0,-2.2171109E0,-1.6024542E0,-1.9940445E0,-1.4928309E0,-7.991604E-1,-1.8932503E0,-1.5317793E0,-1.1687324E0,-5.353048E-1,-3.188929E-1,7.196868E-1,-1.6714077E0,-1.3307215E0,-1.1325139E0,-6.0386235E-1,-5.467584E-1,3.4981784E-1,7.1336097E-1,2.168253E0,9.8243684E-1,2.5043535E0,2.8652654E0,5.080168E0,-1.3770354E0,-9.4262534E-1,-8.999261E-1,-2.846546E-1,-4.7779948E-1,8.856847E-2,3.166987E-1,9.721112E-1],"categories":[],"categories_nodes":[],"categories_segments":[],"categories_sizes":[],"default_left":[0,0,0,0,0,0,0,0,0,0,0,0,0,0,0,0,0,0,0,0,0,0,0,0,0,0,0,0,0,0,0,0,0,0,0,0,0,0,0,0,0,0,0,0,0,0,0,0,0,0,0,0,0,0,0,0,0,0,0,0,0,0,0],"id":2,"left_children":[1,3,5,7,9,11,13,15,17,19,21,23,25,27,29,31,33,35,37,39,41,43,45,47,49,51,53,55,57,59,61,-1,-1,-1,-1,-1,-1,-1,-1,-1,-1,-1,-1,-1,-1,-1,-1,-1,-1,-1,-1,-1,-1,-1,-1,-1,-1,-1,-1,-1,-1,-1,-1],"loss_changes":[6.425731E5,6.2623438E4,2.5024538E5,1.12533125E4,2.3437977E4,2.0036888E5,2.685536E4,1.8689062E3,4.750625E3,1.7791535E4,2.453629E3,5.8306332E4,1.1218869E5,3.4065195E3,8.608845E3,3.2015625E1,7.558828E2,4.5163945E3,3.438828E2,2.880088E3,1.0233814E4,3.744922E2,7.810674E2,9.321582E3,2.5279758E4,2.135554E4,5.4029562E4,8.9665625E2,2.1035967E3,1.8219506E3,2.3733525E3,0E0,0E0,0E0,0E0,0E0,0E0,0E0,0E0,0E0,0E0,0E0,0E0,0E0,0E0,0E0,0E0,0E0,0E0,0E0,0E0,0E0,0E0,0E0,0E0,0E0,0E0,0E0,0E0,0E0,0E0,0E0,0E0],"parents":[2147483647,0,0,1,1,2,2,3,3,4,4,5,5,6,6,7,7,8,8,9,9,10,10,11,11,12,12,13,13,14,14,15,15,16,16,17,17,18,18,19,19,20,20,21,21,22,22,23,23,24,24,25,25,26,26,27,27,28,28,29,29,30,30],"right_children":[2,4,6,8,10,12,14,16,18,20,22,24,26,28,30,32,34,36,38,40,42,44,46,48,50,52,54,56,58,60,62,-1,-1,-1,-1,-1,-1,-1,-1,-1,-1,-1,-1,-1,-1,-1,-1,-1,-1,-1,-1,-1,-1,-1,-1,-1,-1,-1,-1,-1,-1,-1,-1],"split_conditions":[7.42E0,4.38E0,3E0,2.71E0,3E0,5.4E0,5E0,1.71E0,3E0,4.6E0,6E0,2E0,2E0,2.5E0,1.12E1,3E0,3E0,2E0,5.8E0,2E0,2E0,3.1E0,6.24E0,1.069E1,1.125E1,1.183E1,1.125E1,1.096E1,1.12E1,7.7E0,7.4E0,-1.9995247E0,-2.2171109E0,-1.6024542E0,-1.9940445E0,-1.4928309E0,-7.991604E-1,-1.8932503E0,-1.5317793E0,-1.1687324E0,-5.353048E-1,-3.188929E-1,7.196868E-1,-1.6714077E0,-1.3307215E0,-1.1325139E0,-6.0386235E-1,-5.467584E-1,3.4981784E-1,7.1336097E-1,2.168253E0,9.8243684E-1,2.5043535E0,2.8652654E0,5.080168E0,-1.3770354E0,-9.4262534E-1,-8.999261E-1,-2.846546E-1,-4.7779948E-1,8.856847E-2,3.166987E-1,9.721112E-1],"split_indices":[0,0,4,0,4,1,1,0,4,1,1,4,4,1,0,4,4,4,1,4,4,1,0,0,0,0,0,0,0,1,1,0,0,0,0,0,0,0,0,0,0,0,0,0,0,0,0,0,0,0,0,0,0,0,0,0,0,0,0,0,0,0,0],"split_type":[0,0,0,0,0,0,0,0,0,0,0,0,0,0,0,0,0,0,0,0,0,0,0,0,0,0,0,0,0,0,0,0,0,0,0,0,0,0,0,0,0,0,0,0,0,0,0,0,0,0,0,0,0,0,0,0,0,0,0,0,0,0,0],"sum_hessian":[5E3,2.322E3,2.678E3,1.308E3,1.014E3,1.787E3,8.91E2,7.24E2,5.84E2,6.72E2,3.42E2,9.5E2,8.37E2,4.41E2,4.5E2,4.12E2,3.12E2,3.85E2,1.99E2,2.93E2,3.79E2,2.07E2,1.35E2,4.66E2,4.84E2,3.85E2,4.52E2,2.17E2,2.24E2,2.26E2,2.24E2,2.5E2,1.62E2,2.11E2,1.01E2,1.83E2,2.02E2,1.12E2,8.7E1,1.52E2,1.41E2,2.01E2,1.78E2,1.1E2,9.7E1,8.8E1,4.7E1,2.11E2,2.55E2,2.2E2,2.64E2,2.29E2,1.56E2,2.36E2,2.16E2,1.01E2,1.16E2,1.1E2,1.14E2,1.17E2,1.09E2,1.05E2,1.19E2],"tree_param":{"num_deleted":"0","num_feature":"5","num_nodes":"63","size_leaf_vector":"1"}},{"base_weights":[-4.2432365E-3,-9.171356E0,1.140939E1,-1.4335322E1,-3.0623841E0,1.7819157E1,-1.6085336E0,-1.7469318E1,-1.140017E1,-6.891134E0,4.167961E0,9.196595E0,3.0565845E1,-6.494438E0,4.0701375E0,-1.8822384E1,-1.5628154E1,-1.53104E1,-9.212035E0,-3.8987215E0,-1.2212396E1,8.531928E0,-5.7868977E0,1.3320483E0,1.6513527E1,1.8285444E1,4.1187668E1,-9.433704E0,-3.4163556E0,1.2295539E0,8.090613E0,-1.8003689E0,-1.9967598E0,-1.6736243E0,-1.2696595E0,-1.407704E0,-1.7398223E0,-6.819671E-1,-1.392769E0,-7.7394766E-1,4.625257E-2,-1.4351324E0,-1.031496E0,1.4201313E-1,1.5588324E0,-9.0189046E-1,-4.1782537E-1,-2.7229175E-1,6.947873E-1,7.4660295E-1,2.3270872E0,1.3766959E0,2.7127893E0,3.4263783E0,5.2111163E0,-1.0474662E0,-6.0597026E-1,-5.741529E-1,-8.0442905E-2,-2.5779635E-1,2.7178225E-1,4.482723E-1,1.0557783E0],"categories":[],"categories_nodes":[],"categories_segments":[],"categories_sizes":[],"default_left":[0,0,0,0,0,0,0,0,0,0,0,0,0,0,0,0,0,0,0,0,0,0,0,0,0,0,0,0,0,0,0,0,0,0,0,0,0,0,0,0,0,0,0,0,0,0,0,0,0,0,0,0,0,0,0,0,0,0,0,0,0,0,0],"id":3,"left_children":[1,3,5,7,9,11,13,15,17,19,21,23,25,27,29,31,33,35,37,39,41,43,45,47,49,51,53,55,57,59,61,-1,-1,-1,-1,-1,-1,-1,-1,-1,-1,-1,-1,-1,-1,-1,-1,-1,-1,-1,-1,-1,-1,-1,-1,-1,-1,-1,-1,-1,-1,-1,-1],"loss_changes":[5.233596E5,8.746614E4,1.8593712E5,1.3626594E4,3.524173E4,1.6381322E5,2.0447082E4,1.5119688E3,6.524172E3,1.3200668E4,1.9207596E4,5.1307562E4,7.7771875E4,3.550502E3,3.8844414E3,2.7734375E1,8.042656E2,4.709414E2,5.5683594E3,8.948337E3,1.0654492E3,1.5384238E4,6.6420166E2,9.833641E3,2.8071562E4,1.0853742E4,2.2568312E4,6.4599023E2,1.1796516E3,1.1459946E3,1.2077529E3,0E0,0E0,0E0,0E0,0E0,0E0,0E0,0E0,0E0,0E0,0E0,0E0,0E0,0E0,0E0,0E0,0E0,0E0,0E0,0E0,0E0,0E0,0E0,0E0,0E0,0E0,0E0,0E0,0E0,0E0,0E0,0E0],"parents":[2147483647,0,0,1,1,2,2,3,3,4,4,5,5,6,6,7,7,8,8,9,9,10,10,11,11,12,12,13,13,14,14,15,15,16,16,17,17,18,18,19,19,20,20,21,21,22,22,23,23,24,24,25,25,26,26,27,27,28,28,29,29,30,30],"right_children":[2,4,6,8,10,12,14,16,18,20,22,24,26,28,30,32,34,36,38,40,42,44,46,48,50,52,54,56,58,60,62,-1,-1,-1,-1,-1,-1,-1,-1,-1,-1,-1,-1,-1,-1,-1,-1,-1,-1,-1,-1,-1,-1,-1,-1,-1,-1,-1,-1,-1,-1,-1,-1],"split_conditions":[8.74E0,4.95E0,3E0,2.71E0,6.7E0,5.9E0,5.4E0,1.71E0,3.8E0,3E0,3E0,2E0,2E0,2.8E0,1.242E1,3E0,7E0,3E0,3E0,2E0,3.2E0,2E0,6.24E0,3.2E0,2.5E0,1.276E1,1.249E1,1.336E1,1.219E1,6.9E0,7.4E0,-1.8003689E0,-1.9967598E0,-1.6736243E0,-1.2696595E0,-1.407704E0,-1.7398223E0,-6.819671E-1,-1.392769E0,-7.7394766E-1,4.625257E-2,-1.4351324E0,-1.031496E0,1.4201313E-1,1.5588324E0,-9.0189046E-1,-4.1782537E-1,-2.7229175E-1,6.947873E-1,7.4660295E-1,2.3270872E0,1.3766959E0,2.7127893E0,3.4263783E0,5.2111163E0,-1.0474662E0,-6.0597026E-1,-5.741529E-1,-8.0442905E-2,-2.5779635E-1,2.7178225E-1,4.482723E-1,1.0557783E0],"split_indices":[0,0,4,0,1,1,1,0,1,4,4,4,4,1,0,4,1,4,4,4,1,4,0,1,1,0,0,0,0,1,1,0,0,0,0,0,0,0,0,0,0,0,0,0,0,0,0,0,0,0,0,0,0,0,0,0,0,0,0,0,0,0,0],"split_type":[0,0,0,0,0,0,0,0,0,0,0,0,0,0,0,0,0,0,0,0,0,0,0,0,0,0,0,0,0,0,0,0,0,0,0,0,0,0,0,0,0,0,0,0,0,0,0,0,0,0,0,0,0,0,0,0,0,0,0,0,0,0,0],"sum_hessian":[5E3,2.773E3,2.227E3,1.502E3,1.271E3,1.492E3,7.35E2,7.24E2,7.78E2,8.31E2,4.4E2,8.91E2,6.01E2,3.95E2,3.4E2,4.12E2,3.12E2,2.77E2,5.01E2,5.33E2,2.98E2,3.06E2,1.34E2,4.3E2,4.61E2,2.8E2,3.21E2,2.01E2,1.94E2,2E2,1.4E2,2.5E2,1.62E2,2.23E2,8.9E1,1.79E2,9.8E1,3.34E2,1.67E2,2.83E2,2.5E2,1.37E2,1.61E2,1.53E2,1.53E2,4.3E1,9.1E1,2.5E2,1.8E2,1.98E2,2.63E2,1.87E2,9.3E1,1.99E2,1.22E2,1.52E2,4.9E1,1.02E2,9.2E1,5.6E1,1.44E2,5.8E1,8.2E1],"tree_param":{"num_deleted":"0","num_feature":"5","num_nodes":"63","size_leaf_vector":"1"}},{"base_weights":[-3.687683E-3,-9.034265E0,9.44812E0,-1.3609059E1,-4.236312E0,1.5100871E1,-1.9526733E0,-1.5731685E1,-1.0955192E1,-1.2085629E0,-1.0131859E1,3.8650556E0,2.2595116E1,-6.018518E0,3.3131728E0,-1.682641E1,-1.3879127E1,-1.3202638E1,-8.0555105E0,-5.950703E0,3.6057463E0,-1.1976507E1,-6.8532343E0,-1.7557209E0,9.405989E0,1.2241207E1,3.1619005E1,-8.460732E0,-3.169676E0,9.1443014E-1,8.042501E0,-1.7697077E0,-1.5788392E0,-1.4772745E0,-1.028106E0,-1.1966705E0,-1.5448291E0,-5.759015E-1,-1.2426478E0,-9.040934E-1,-2.7720103E-1,-1.3873409E-1,8.9319867E-1,-1.3473227E0,-1.0447232E0,-8.9380914E-1,-4.5684734E-1,-6.314637E-1,8.609464E-2,2.602396E-1,1.3541826E0,8.7926453E-1,2.1357837E0,2.5213437E0,4.1432457E0,-9.6640825E-1,-5.794613E-1,-5.4441875E-1,1.8702053E-2,-2.2366357E-1,2.8031492E-1,4.4905987E-1,1.0219172E0],"categories":[],"categories_nodes":[],"categories_segments":[],"categories_sizes":[],"default_left":[0,0,0,0,0,0,0,0,0,0,0,0,0,0,0,0,0,0,0,0,0,0,0,0,0,0,0,0,0,0,0,0,0,0,0,0,0,0,0,0,0,0,0,0,0,0,0,0,0,0,0,0,0,0,0,0,0,0,0,0,0,0,0],"id":4,"left_children":[1,3,5,7,9,11,13,15,17,19,21,23,25,27,29,31,33,35,37,39,41,43,45,47,49,51,53,55,57,59,61,-1,-1,-1,-1,-1,-1,-1,-1,-1,-1,-1,-1,-1,-1,-1,-1,-1,-1,-1,-1,-1,-1,-1,-1,-1,-1,-1,-1,-1,-1,-1,-1],"loss_changes":[4.269471E5,5.6089547E4,1.5753514E5,7.2014688E3,2.2300553E4,1.375019E5,1.7383541E4,1.2367812E3,3.7060234E3,1.8901975E4,2.4822344E3,2.0416062E4,9.117681E4,3.159711E3,4.0085784E3,1.2819531E2,7.323281E2,7.254883E2,2.5182148E3,4.071084E3,1.0942682E4,4.772461E2,6.9749316E2,3.8943457E3,9.250482E3,1.4211391E4,3.1831531E4,7.332363E2,1.6272402E3,1.4108186E3,8.741367E2,0E0,0E0,0E0,0E0,0E0,0E0,0E0,0E0,0E0,0E0,0E0,0E0,0E0,0E0,0E0,0E0,0E0,0E0,0E0,0E0,0E0,0E0,0E0,0E0,0E0,0E0,0E0,0E0,0E0,0E0,0E0,0E0],"parents":[2147483647,0,0,1,1,2,2,3,3,4,4,5,5,6,6,7,7,8,8,9,9,10,10,11,11,12,12,13,13,14,14,15,15,16,16,17,17,18,18,19,19,20,20,21,21,22,22,23,23,24,24,25,25,26,26,27,27,28,28,29,29,30,30],"right_children":[2,4,6,8,10,12,14,16,18,20,22,24,26,28,30,32,34,36,38,40,42,44,46,48,50,52,54,56,58,60,62,-1,-1,-1,-1,-1,-1,-1,-1,-1,-1,-1,-1,-1,-1,-1,-1,-1,-1,-1,-1,-1,-1,-1,-1,-1,-1,-1,-1,-1,-1,-1,-1],"split_conditions":[8.08E0,4.38E0,3E0,2.71E0,3E0,4E0,5.6E0,1.81E0,5.8E0,5.4E0,6.3E0,2E0,2E0,3.1E0,1.281E1,1.16E0,7.7E0,3E0,3E0,2E0,2E0,3.1E0,6.24E0,1.5E0,1.5E0,1.315E1,1.23E1,1.281E1,1.222E1,9.9E0,7.4E0,-1.7697077E0,-1.5788392E0,-1.4772745E0,-1.028106E0,-1.1966705E0,-1.5448291E0,-5.759015E-1,-1.2426478E0,-9.040934E-1,-2.7720103E-1,-1.3873409E-1,8.9319867E-1,-1.3473227E0,-1.0447232E0,-8.9380914E-1,-4.5684734E-1,-6.314637E-1,8.609464E-2,2.602396E-1,1.3541826E0,8.7926453E-1,2.1357837E0,2.5213437E0,4.1432457E0,-9.6640825E-1,-5.794613E-1,-5.4441875E-1,1.8702053E-2,-2.2366357E-1,2.8031492E-1,4.4905987E-1,1.0219172E0],"split_indices":[0,0,4,0,4,1,1,0,1,1,1,4,4,1,0,0,1,4,4,4,4,1,0,1,1,0,0,0,0,0,1,0,0,0,0,0,0,0,0,0,0,0,0,0,0,0,0,0,0,0,0,0,0,0,0,0,0,0,0,0,0,0,0],"split_type":[0,0,0,0,0,0,0,0,0,0,0,0,0,0,0,0,0,0,0,0,0,0,0,0,0,0,0,0,0,0,0,0,0,0,0,0,0,0,0,0,0,0,0,0,0,0,0,0,0,0,0,0,0,0,0,0,0,0,0,0,0,0,0],"sum_hessian":[5E3,2.557E3,2.443E3,1.308E3,1.249E3,1.633E3,8.1E2,7.24E2,5.84E2,8.26E2,4.23E2,6.54E2,9.79E2,4.57E2,3.53E2,4.5E2,2.74E2,3.27E2,2.57E2,4.16E2,4.1E2,2.69E2,1.54E2,3.25E2,3.29E2,4.57E2,5.22E2,2.45E2,2.12E2,2.35E2,1.18E2,2.36E2,2.14E2,2.17E2,5.7E1,2.15E2,1.12E2,1.7E2,8.7E1,2.1E2,2.06E2,2.12E2,1.98E2,1.32E2,1.37E2,7.9E1,7.5E1,1.18E2,2.07E2,1.25E2,2.04E2,3.33E2,1.24E2,3.18E2,2.04E2,1.67E2,7.8E1,1.26E2,8.6E1,8.8E1,1.47E2,4.6E1,7.2E1],"tree_param":{"num_deleted":"0","num_feature":"5","num_nodes":"63","size_leaf_vector":"1"}},{"base_weights":[-4.1945893E-3,-6.991569E0,1.0016144E1,-1.1065478E1,-1.1341752E0,1.5397052E1,-8.870103E-1,-1.3960258E1,-8.5817E0,-5.242848E0,4.477341E0,8.07338E0,2.6824402E1,-5.6172795E0,3.1865466E0,-1.5151195E1,-1.2390249E1,-1.2155186E1,-6.6221523E0,-2.559622E0,-9.735926E0,8.039785E0,-3.9341438E0,1.524548E0,1.4167065E1,1.668271E1,3.5150074E1,-8.010141E0,-3.6322007E0,1.6004725E0,7.507642E0,-1.4390191E0,-1.6279978E0,-1.3320439E0,-9.018958E-1,-1.3555604E0,-1.0765581E0,-4.6475765E-1,-1.0567846E0,-6.5700495E-1,7.0216306E-2,-1.1918586E0,-8.435993E-1,2.2478919E-1,1.4499855E0,-5.397585E-1,-1.9751363E-1,-2.174583E-1,5.383315E-1,7.8585535E-1,2.0827007E0,1.2972571E0,2.2671504E0,2.745281E0,4.187567E0,-9.388648E-1,-6.8560976E-1,-5.044047E-1,-1.8298765E-1,-1.2791328E-3,4.370853E-1,3.1668708E-1,1.032329E0],"categories":[],"categories_nodes":[],"categories_segments":[],"categories_sizes":[],"default_left":[0,0,0,0,0,0,0,0,0,0,0,0,0,0,0,0,0,0,0,0,0,0,0,0,0,0,0,0,0,0,0,0,0,0,0,0,0,0,0,0,0,0,0,0,0,0,0,0,0,0,0,0,0,0,0,0,0,0,0,0,0,0,0],"id":5,"left_children":[1,3,5,7,9,11,13,15,17,19,21,23,25,27,29,31,33,35,37,39,41,43,45,47,49,51,53,55,57,59,61,-1,-1,-1,-1,-1,-1,-1,-1,-1,-1,-1,-1,-1,-1,-1,-1,-1,-1,-1,-1,-1,-1,-1,-1,-1,-1,-1,-1,-1,-1,-1,-1],"loss_changes":[3.5021934E5,7.03102E4,1.2057816E5,1.2376391E4,2.7921094E4,1.1494109E5,1.3120832E4,1.3099688E3,6.4877734E3,8.402184E3,1.5373938E4,3.349988E4,4.4755938E4,1.4671621E3,2.4963933E3,1.5314062E2,9.8058203E2,4.9820312E2,4.6878555E3,5.7472383E3,6.399922E2,1.3437178E4,4.279734E2,5.8069854E3,1.8112555E4,5.1273906E3,1.4070406E4,1.6153223E2,4.335315E2,1.2023121E3,1.1650718E3,0E0,0E0,0E0,0E0,0E0,0E0,0E0,0E0,0E0,0E0,0E0,0E0,0E0,0E0,0E0,0E0,0E0,0E0,0E0,0E0,0E0,0E0,0E0,0E0,0E0,0E0,0E0,0E0,0E0,0E0,0E0,0E0],"parents":[2147483647,0,0,1,1,2,2,3,3,4,4,5,5,6,6,7,7,8,8,9,9,10,10,11,11,12,12,13,13,14,14,15,15,16,16,17,17,18,18,19,19,20,20,21,21,22,22,23,23,24,24,25,25,26,26,27,27,28,28,29,29,30,30],"right_children":[2,4,6,8,10,12,14,16,18,20,22,24,26,28,30,32,34,36,38,40,42,44,46,48,50,52,54,56,58,60,62,-1,-1,-1,-1,-1,-1,-1,-1,-1,-1,-1,-1,-1,-1,-1,-1,-1,-1,-1,-1,-1,-1,-1,-1,-1,-1,-1,-1,-1,-1,-1,-1],"split_conditions":[9.22E0,5.63E0,3E0,2.92E0,6E0,6E0,4.7E0,1.81E0,3.8E0,3E0,3E0,2E0,2E0,1.9E0,1.367E1,3E0,7.6E0,1.8E0,3E0,2.8E0,2E0,2E0,1.9664E4,3E0,3.1E0,1.276E1,7.9E0,7E-1,1.238E1,8.1E0,6.7E0,-1.4390191E0,-1.6279978E0,-1.3320439E0,-9.018958E-1,-1.3555604E0,-1.0765581E0,-4.6475765E-1,-1.0567846E0,-6.5700495E-1,7.0216306E-2,-1.1918586E0,-8.435993E-1,2.2478919E-1,1.4499855E0,-5.397585E-1,-1.9751363E-1,-2.174583E-1,5.383315E-1,7.8585535E-1,2.0827007E0,1.2972571E0,2.2671504E0,2.745281E0,4.187567E0,-9.388648E-1,-6.8560976E-1,-5.044047E-1,-1.8298765E-1,-1.2791328E-3,4.370853E-1,3.1668708E-1,1.032329E0],"split_indices":[0,0,4,0,1,1,1,0,1,4,4,4,4,1,0,4,1,1,4,1,1,4,2,1,1,0,1,1,0,1,1,0,0,0,0,0,0,0,0,0,0,0,0,0,0,0,0,0,0,0,0,0,0,0,0,0,0,0,0,0,0,0,0],"split_type":[0,0,0,0,0,0,0,0,0,0,0,0,0,0,0,0,0,0,0,0,0,0,0,0,0,0,0,0,0,0,0,0,0,0,0,0,0,0,0,0,0,0,0,0,0,0,0,0,0,0,0,0,0,0,0,0,0,0,0,0,0,0,0],"sum_hessian":[5E3,2.946E3,2.054E3,1.737E3,1.209E3,1.375E3,6.79E2,8E2,9.37E2,6.98E2,5.11E2,8.39E2,5.36E2,3.14E2,3.65E2,4.5E2,3.5E2,3.3E2,6.07E2,4.38E2,2.6E2,3.59E2,1.52E2,4.05E2,4.34E2,2.43E2,2.93E2,1.41E2,1.73E2,2.68E2,9.7E1,2.77E2,1.73E2,2.72E2,7.8E1,1.6E2,1.7E2,4.06E2,2.01E2,1.96E2,2.42E2,9.4E1,1.66E2,1.9E2,1.69E2,8.6E1,6.6E1,2.07E2,1.98E2,2.24E2,2.1E2,1.52E2,9.1E1,1.39E2,1.54E2,6.1E1,8E1,9.6E1,7.7E1,1.7E2,9.8E1,3.9E1,5.8E1],"tree_param":{"num_deleted":"0","num_feature":"5","num_nodes":"63","size_leaf_vector":"1"}},{"base_weights":[-3.3310854E-3,-8.65254E0,6.6078997E0,-1.2048334E1,-5.7593126E0,1.109665E1,-2.2963088E0,-1.0962261E1,-1.4048042E1,-3.7652192E0,-9.598499E0,6.0359993E0,2.1362833E1,-6.1725683E0,1.0112749E0,-1.29400835E1,-9.240584E0,-1.460732E0,-1.2924442E0,-7.799383E0,-1.4453015E0,-1.1585866E1,-8.094383E0,2.3954819E-1,1.1407954E1,1.2701192E1,2.918843E1,-7.864218E0,-4.0631676E0,-2.8175972E0,3.7739007E0,-1.3893195E0,-1.1638858E0,-1.2240794E0,-7.2157264E-1,-9.6856415E-1,-5.7032114E-1,-4.9414945E-1,2.276365E-1,-1.2129698E0,-9.8056746E-1,-8.9981794E-1,-6.631059E-1,-3.6936378E-1,4.095336E-1,6.967339E-1,1.943977E0,6.9505095E-1,1.8763026E0,2.1259935E0,3.8349469E0,-9.474632E-1,-6.450429E-1,-6.4277595E-1,-2.1732342E-1,-4.5068493E-1,-6.987529E-2,1.8606366E-1,6.612348E-1],"categories":[],"categories_nodes":[],"categories_segments":[],"categories_sizes":[],"default_left":[0,0,0,0,0,0,0,0,0,0,0,0,0,0,0,0,0,0,0,0,0,0,0,0,0,0,0,0,0,0,0,0,0,0,0,0,0,0,0,0,0,0,0,0,0,0,0,0,0,0,0,0,0,0,0,0,0,0,0],"id":6,"left_children":[1,3,5,7,9,11,13,15,17,19,21,23,25,27,29,31,33,-1,-1,35,37,39,41,43,45,47,49,51,53,55,57,-1,-1,-1,-1,-1,-1,-1,-1,-1,-1,-1,-1,-1,-1,-1,-1,-1,-1,-1,-1,-1,-1,-1,-1,-1,-1,-1,-1],"loss_changes":[2.8602394E5,2.1220969E4,1.1333694E5,2.0091406E3,8.93634E3,9.780356E4,1.2199063E4,2.0937812E3,2.9273438E1,7.2231777E3,1.1019141E3,3.9356043E4,4.178997E4,1.5309902E3,5.447592E3,2.1036328E2,2.043998E3,0E0,0E0,1.0597676E3,6.4129873E3,4.564258E1,2.4584082E2,9.250936E3,2.3261594E4,1.0222914E4,2.2863156E4,4.898672E2,8.6640845E2,7.699717E2,1.6114756E3,0E0,0E0,0E0,0E0,0E0,0E0,0E0,0E0,0E0,0E0,0E0,0E0,0E0,0E0,0E0,0E0,0E0,0E0,0E0,0E0,0E0,0E0,0E0,0E0,0E0,0E0,0E0,0E0],"parents":[2147483647,0,0,1,1,2,2,3,3,4,4,5,5,6,6,7,7,8,8,9,9,10,10,11,11,12,12,13,13,14,14,15,15,16,16,19,19,20,20,21,21,22,22,23,23,24,24,25,25,26,26,27,27,28,28,29,29,30,30],"right_children":[2,4,6,8,10,12,14,16,18,20,22,24,26,28,30,32,34,-1,-1,36,38,40,42,44,46,48,50,52,54,56,58,-1,-1,-1,-1,-1,-1,-1,-1,-1,-1,-1,-1,-1,-1,-1,-1,-1,-1,-1,-1,-1,-1,-1,-1,-1,-1,-1,-1],"split_conditions":[7E0,3.45E0,3E0,3E0,3E0,6.9E0,4.7E0,2E0,2.31E0,3.9E0,4.3E0,2E0,2E0,1.137E1,1.038E1,5.7E0,1.77E0,-1.460732E0,-1.2924442E0,2E0,2E0,6.12E0,5.37E0,1.081E1,1.23E1,1.063E1,1.125E1,1.9E0,1.8E0,7.7E0,7.9E0,-1.3893195E0,-1.1638858E0,-1.2240794E0,-7.2157264E-1,-9.6856415E-1,-5.7032114E-1,-4.9414945E-1,2.276365E-1,-1.2129698E0,-9.8056746E-1,-8.9981794E-1,-6.631059E-1,-3.6936378E-1,4.095336E-1,6.967339E-1,1.943977E0,6.9505095E-1,1.8763026E0,2.1259935E0,3.8349469E0,-9.474632E-1,-6.450429E-1,-6.4277595E-1,-2.1732342E-1,-4.5068493E-1,-6.987529E-2,1.8606366E-1,6.612348E-1],"split_indices":[0,0,4,4,4,1,1,4,0,1,1,4,4,0,0,1,0,0,0,4,4,0,0,0,0,0,0,1,1,1,1,0,0,0,0,0,0,0,0,0,0,0,0,0,0,0,0,0,0,0,0,0,0,0,0,0,0,0,0],"split_type":[0,0,0,0,0,0,0,0,0,0,0,0,0,0,0,0,0,0,0,0,0,0,0,0,0,0,0,0,0,0,0,0,0,0,0,0,0,0,0,0,0,0,0,0,0,0,0,0,0,0,0,0,0,0,0,0,0,0,0],"sum_hessian":[5E3,2.166E3,2.834E3,9.95E2,1.171E3,1.884E3,9.5E2,6.49E2,3.46E2,7.72E2,3.99E2,1.263E3,6.21E2,4.37E2,5.13E2,2.99E2,3.5E2,2.23E2,1.23E2,2.81E2,4.91E2,1.69E2,2.3E2,6.08E2,6.55E2,2.96E2,3.25E2,2.41E2,1.96E2,2.15E2,2.98E2,1.67E2,1.32E2,1.39E2,2.11E2,1.46E2,1.35E2,2.53E2,2.38E2,1.25E2,4.4E1,1.39E2,9.1E1,3.01E2,3.07E2,4.23E2,2.32E2,1.53E2,1.43E2,1.76E2,1.49E2,1.1E2,1.31E2,8.6E1,1.1E2,1.19E2,9.6E1,1.79E2,1.19E2],"tree_param":{"num_deleted":"0","num_feature":"5","num_nodes":"59","size_leaf_vector":"1"}},{"base_weights":[-3.743045E-3,-6.0068927E0,7.8244104E0,-9.030386E0,-1.1980829E0,2.799757E0,1.5249212E1,-1.1342212E1,-7.0465875E0,-3.8533735E0,4.701748E0,6.043656E0,-3.8161488E0,2.1084293E1,3.4464376E0,-1.3020146E0,-1.0530155E1,-8.822519E0,-4.2964473E0,-1.6491141E0,-7.716876E0,7.9713116E0,-2.8988137E0,8.624831E-1,1.0877501E1,-5.778843E0,-1.3140321E0,1.2845218E1,2.818042E1,1.9720521E0,8.252555E0,-9.4715357E-1,-1.242714E0,-1.0620883E0,-7.4100465E-1,-2.4384978E-1,-7.748597E-1,-5.205019E-1,1.2579553E-1,-9.217456E-1,-6.298176E-1,2.819694E-1,1.276494E0,-4.7333622E-1,-1.7069267E-1,-3.308816E-1,3.6730322E-1,2.9352614E-1,1.5123222E0,-7.254677E-1,-4.506746E-1,-3.182895E-1,6.909957E-2,9.762551E-1,1.8611544E0,2.3046412E0,3.5965374E0,-5.754627E-3,3.669401E-1,5.943634E-1,1.0386662E0],"categories":[],"categories_nodes":[],"categories_segments":[],"categories_sizes":[],"default_left":[0,0,0,0,0,0,0,0,0,0,0,0,0,0,0,0,0,0,0,0,0,0,0,0,0,0,0,0,0,0,0,0,0,0,0,0,0,0,0,0,0,0,0,0,0,0,0,0,0,0,0,0,0,0,0,0,0,0,0,0,0],"id":7,"left_children":[1,3,5,7,9,11,13,15,17,19,21,23,25,27,29,-1,31,33,35,37,39,41,43,45,47,49,51,53,55,57,59,-1,-1,-1,-1,-1,-1,-1,-1,-1,-1,-1,-1,-1,-1,-1,-1,-1,-1,-1,-1,-1,-1,-1,-1,-1,-1,-1,-1,-1,-1],"loss_changes":[2.3506189E5,4.1150234E4,8.095091E4,7.8908906E3,1.7156467E4,2.783695E4,6.0257594E4,9.543203E2,4.5433438E3,6.4169756E3,8.472283E3,2.1779754E4,2.0893564E3,3.3898812E4,2.0457722E3,0E0,9.767617E2,1.3666367E3,2.3542559E3,4.9891084E3,5.252578E2,5.8414033E3,2.171377E2,4.947806E3,1.5129852E4,4.160044E2,7.104052E2,4.6710586E3,1.1721109E4,7.718769E2,2.7333447E2,0E0,0E0,0E0,0E0,0E0,0E0,0E0,0E0,0E0,0E0,0E0,0E0,0E0,0E0,0E0,0E0,0E0,0E0,0E0,0E0,0E0,0E0,0E0,0E0,0E0,0E0,0E0,0E0,0E0,0E0],"parents":[2147483647,0,0,1,1,2,2,3,3,4,4,5,5,6,6,7,7,8,8,9,9,10,10,11,11,12,12,13,13,14,14,16,16,17,17,18,18,19,19,20,20,21,21,22,22,23,23,24,24,25,25,26,26,27,27,28,28,29,29,30,30],"right_children":[2,4,6,8,10,12,14,16,18,20,22,24,26,28,30,-1,32,34,36,38,40,42,44,46,48,50,52,54,56,58,60,-1,-1,-1,-1,-1,-1,-1,-1,-1,-1,-1,-1,-1,-1,-1,-1,-1,-1,-1,-1,-1,-1,-1,-1,-1,-1,-1,-1,-1,-1],"split_conditions":[8.88E0,5.63E0,5.9E0,2.92E0,7E0,3E0,3E0,1.21E0,6.3E0,3E0,3E0,2E0,3.3E0,2E0,1.376E1,-1.3020146E0,3E0,2.8E0,3E0,3.3E0,3.5E0,2E0,1.4191E4,2.3E0,2.1E0,1.3E0,1.222E1,1.276E1,1.249E1,1.4234E4,8.1E0,-9.4715357E-1,-1.242714E0,-1.0620883E0,-7.4100465E-1,-2.4384978E-1,-7.748597E-1,-5.205019E-1,1.2579553E-1,-9.217456E-1,-6.298176E-1,2.819694E-1,1.276494E0,-4.7333622E-1,-1.7069267E-1,-3.308816E-1,3.6730322E-1,2.9352614E-1,1.5123222E0,-7.254677E-1,-4.506746E-1,-3.182895E-1,6.909957E-2,9.762551E-1,1.8611544E0,2.3046412E0,3.5965374E0,-5.754627E-3,3.669401E-1,5.943634E-1,1.0386662E0],"split_indices":[0,0,1,0,1,4,4,0,1,4,4,4,1,4,0,0,4,1,4,1,1,4,2,1,1,1,0,0,0,2,1,0,0,0,0,0,0,0,0,0,0,0,0,0,0,0,0,0,0,0,0,0,0,0,0,0,0,0,0,0,0],"split_type":[0,0,0,0,0,0,0,0,0,0,0,0,0,0,0,0,0,0,0,0,0,0,0,0,0,0,0,0,0,0,0,0,0,0,0,0,0,0,0,0,0,0,0,0,0,0,0,0,0,0,0,0,0,0,0,0,0,0,0,0,0],"sum_hessian":[5E3,2.83E3,2.17E3,1.737E3,1.093E3,1.295E3,8.75E2,8E2,9.37E2,7.54E2,3.39E2,8.69E2,4.26E2,5.85E2,2.9E2,2.56E2,5.44E2,5.68E2,3.69E2,4.81E2,2.73E2,2.37E2,1.02E2,4.2E2,4.49E2,2.38E2,1.88E2,2.72E2,3.13E2,2.23E2,6.7E1,3.53E2,1.91E2,2.47E2,3.21E2,2.41E2,1.28E2,2.16E2,2.65E2,1.3E2,1.43E2,1.15E2,1.22E2,3.9E1,6.3E1,1.69E2,2.51E2,1.57E2,2.92E2,1.08E2,1.3E2,9.7E1,9.1E1,1.79E2,9.3E1,1.91E2,1.22E2,1.02E2,1.21E2,3.4E1,3.3E1],"tree_param":{"num_deleted":"0","num_feature":"5","num_nodes":"61","size_leaf_vector":"1"}},{"base_weights":[-2.6078925E-3,-4.964871E0,7.731416E0,-7.9548907E0,-4.437325E-1,1.1812841E1,-4.6211827E-1,-9.889759E0,-5.836869E0,-4.546084E0,2.9724693E0,3.4458888E0,1.7566751E1,-3.348304E0,3.2793553E0,-1.0950116E1,-8.454467E0,-7.4899607E0,-3.2856243E0,-2.896286E0,-7.458056E0,5.956567E0,-3.3599277E0,1.096203E0,1.022968E1,1.0205312E1,2.3697445E1,-4.9469595E0,-1.0181372E0,2.0200648E0,7.0287757E0,-1.23075E0,-1.0362148E0,-1.021112E0,-6.8980175E-1,-9.5673174E-1,-6.391474E-1,-1.489966E-1,-6.502897E-1,-5.8859444E-1,-8.8958286E-2,-8.826807E-1,-6.381518E-1,1.5129457E-1,1.0182037E0,-4.665505E-1,-1.592098E-1,-4.342146E-1,3.1177393E-1,3.280107E-1,1.2961856E0,7.334711E-1,1.710158E0,1.9287583E0,3.24109E0,-5.749131E-1,-2.9703236E-1,-2.1287565E-1,1.2678887E-1,1.9110227E-2,3.3459964E-1,4.8238516E-1,9.565282E-1],"categories":[],"categories_nodes":[],"categories_segments":[],"categories_sizes":[],"default_left":[0,0,0,0,0,0,0,0,0,0,0,0,0,0,0,0,0,0,0,0,0,0,0,0,0,0,0,0,0,0,0,0,0,0,0,0,0,0,0,0,0,0,0,0,0,0,0,0,0,0,0,0,0,0,0,0,0,0,0,0,0,0,0],"id":8,"left_children":[1,3,5,7,9,11,13,15,17,19,21,23,25,27,29,31,33,35,37,39,41,43,45,47,49,51,53,55,57,59,61,-1,-1,-1,-1,-1,-1,-1,-1,-1,-1,-1,-1,-1,-1,-1,-1,-1,-1,-1,-1,-1,-1,-1,-1,-1,-1,-1,-1,-1,-1,-1,-1],"loss_changes":[1.9196806E5,4.118672E4,6.5383188E4,7.4581797E3,1.7027068E4,6.2765688E4,7.0408613E3,1.3638984E3,3.6783047E3,2.6302988E3,1.2548388E4,8.484687E3,3.4644203E4,1.3658125E3,1.3267385E3,3.0903125E2,1.0532949E3,1.1528496E3,1.9949724E3,2.1185361E3,2.3690039E2,8.452745E3,4.8418408E2,4.378084E3,2.5587656E3,6.862707E3,1.5551844E4,3.2858447E2,3.8607355E2,5.183276E2,3.509475E2,0E0,0E0,0E0,0E0,0E0,0E0,0E0,0E0,0E0,0E0,0E0,0E0,0E0,0E0,0E0,0E0,0E0,0E0,0E0,0E0,0E0,0E0,0E0,0E0,0E0,0E0,0E0,0E0,0E0,0E0,0E0,0E0],"parents":[2147483647,0,0,1,1,2,2,3,3,4,4,5,5,6,6,7,7,8,8,9,9,10,10,11,11,12,12,13,13,14,14,15,15,16,16,17,17,18,18,19,19,20,20,21,21,22,22,23,23,24,24,25,25,26,26,27,27,28,28,29,29,30,30],"right_children":[2,4,6,8,10,12,14,16,18,20,22,24,26,28,30,32,34,36,38,40,42,44,46,48,50,52,54,56,58,60,62,-1,-1,-1,-1,-1,-1,-1,-1,-1,-1,-1,-1,-1,-1,-1,-1,-1,-1,-1,-1,-1,-1,-1,-1,-1,-1,-1,-1,-1,-1,-1,-1],"split_conditions":[9.51E0,5.95E0,3E0,3.32E0,4.8E0,4E0,5.6E0,5.7E0,6.3E0,3E0,3E0,1.351E1,2E0,3.3E0,1.382E1,1.36E0,1.81E0,2.2E0,3E0,2E0,1.8E0,2E0,7.7E0,1.1E0,1.3E0,8.3E0,8E0,1.346E1,1.336E1,1.4234E4,8.1E0,-1.23075E0,-1.0362148E0,-1.021112E0,-6.8980175E-1,-9.5673174E-1,-6.391474E-1,-1.489966E-1,-6.502897E-1,-5.8859444E-1,-8.8958286E-2,-8.826807E-1,-6.381518E-1,1.5129457E-1,1.0182037E0,-4.665505E-1,-1.592098E-1,-4.342146E-1,3.1177393E-1,3.280107E-1,1.2961856E0,7.334711E-1,1.710158E0,1.9287583E0,3.24109E0,-5.749131E-1,-2.9703236E-1,-2.1287565E-1,1.2678887E-1,1.9110227E-2,3.3459964E-1,4.8238516E-1,9.565282E-1],"split_indices":[0,0,4,0,1,1,1,1,1,4,4,0,4,1,0,0,0,1,4,1,1,4,1,1,1,1,1,0,0,2,1,0,0,0,0,0,0,0,0,0,0,0,0,0,0,0,0,0,0,0,0,0,0,0,0,0,0,0,0,0,0,0,0],"split_type":[0,0,0,0,0,0,0,0,0,0,0,0,0,0,0,0,0,0,0,0,0,0,0,0,0,0,0,0,0,0,0,0,0,0,0,0,0,0,0,0,0,0,0,0,0,0,0,0,0,0,0,0,0,0,0,0,0,0,0,0,0,0,0],"sum_hessian":[5E3,3.046E3,1.954E3,1.833E3,1.213E3,1.304E3,6.5E2,9.56E2,8.77E2,5.51E2,6.62E2,5.32E2,7.72E2,3.67E2,2.83E2,5.46E2,4.1E2,5.31E2,3.46E2,3.53E2,1.98E2,4.5E2,2.12E2,3.96E2,1.36E2,3.52E2,4.2E2,2.17E2,1.5E2,2.13E2,7E1,1.59E2,3.87E2,1.9E2,2.2E2,1.81E2,3.5E2,2.23E2,1.23E2,1.41E2,2.12E2,8.4E1,1.14E2,2.2E2,2.3E2,1.21E2,9.1E1,1.07E2,2.89E2,3.9E1,9.7E1,2.5E2,1.02E2,2.81E2,1.39E2,1.53E2,6.4E1,1.01E2,4.9E1,9E1,1.23E2,3.9E1,3.1E1],"tree_param":{"num_deleted":"0","num_feature":"5","num_nodes":"63","size_leaf_vector":"1"}},{"base_weights":[-1.9626769E-3,-4.23786E0,7.397484E0,-7.1628766E0,-2.551317E-1,1.1179639E1,-1.8524353E-1,-8.90494E0,-5.25591E0,-2.466083E0,5.466972E0,3.5885837E0,1.632276E1,-2.8407426E0,3.229666E0,-8.01398E0,-1.05128975E1,-6.544655E0,-2.5232315E0,-6.877645E-1,-5.7898774E0,8.585666E0,-1.5101857E0,-2.892053E-1,7.193781E0,9.640621E0,2.1833115E1,-5.1314683E0,-1.463749E0,2.3350046E0,7.571558E0,-9.7620124E-1,-6.5170807E-1,-1.1221639E0,-9.928978E-1,-5.476327E-1,-8.648424E-1,-8.3214425E-2,-5.562298E-1,-3.6394185E-1,2.3796189E-1,-7.117774E-1,-4.3124086E-1,4.1589513E-1,1.2980388E0,-3.080792E-1,-2.9210938E-2,-4.013655E-1,1.6942467E-1,1.5135808E-3,9.700529E-1,6.25648E-1,1.4397111E0,1.779793E0,2.9952817E0,-6.465718E-1,-4.0039164E-1,-2.5711975E-1,6.3777044E-2,3.385753E-2,3.5019237E-1,5.287093E-1,1.0162785E0],"categories":[],"categories_nodes":[],"categories_segments":[],"categories_sizes":[],"default_left":[0,0,0,0,0,0,0,0,0,0,0,0,0,0,0,0,0,0,0,0,0,0,0,0,0,0,0,0,0,0,0,0,0,0,0,0,0,0,0,0,0,0,0,0,0,0,0,0,0,0,0,0,0,0,0,0,0,0,0,0,0,0,0],"id":9,"left_children":[1,3,5,7,9,11,13,15,17,19,21,23,25,27,29,31,33,35,37,39,41,43,45,47,49,51,53,55,57,59,61,-1,-1,-1,-1,-1,-1,-1,-1,-1,-1,-1,-1,-1,-1,-1,-1,-1,-1,-1,-1,-1,-1,-1,-1,-1,-1,-1,-1,-1,-1,-1,-1],"loss_changes":[1.5677919E5,3.705538E4,5.2226617E4,6.0458438E3,1.7067426E4,4.7377094E4,5.513626E3,1.2867734E3,3.0755625E3,5.747193E3,8.194585E3,6.880335E3,2.6447906E4,1.0712644E3,1.0156033E3,1.5586914E3,2.8457031E1,1.2921562E3,1.4498009E3,5.757858E3,6.3439746E2,5.0041016E3,2.2293497E2,1.7649696E3,4.588593E3,5.205715E3,1.2441641E4,1.6667969E2,5.020145E2,5.160012E2,2.1264893E2,0E0,0E0,0E0,0E0,0E0,0E0,0E0,0E0,0E0,0E0,0E0,0E0,0E0,0E0,0E0,0E0,0E0,0E0,0E0,0E0,0E0,0E0,0E0,0E0,0E0,0E0,0E0,0E0,0E0,0E0,0E0,0E0],"parents":[2147483647,0,0,1,1,2,2,3,3,4,4,5,5,6,6,7,7,8,8,9,9,10,10,11,11,12,12,13,13,14,14,15,15,16,16,17,17,18,18,19,19,20,20,21,21,22,22,23,23,24,24,25,25,26,26,27,27,28,28,29,29,30,30],"right_children":[2,4,6,8,10,12,14,16,18,20,22,24,26,28,30,32,34,36,38,40,42,44,46,48,50,52,54,56,58,60,62,-1,-1,-1,-1,-1,-1,-1,-1,-1,-1,-1,-1,-1,-1,-1,-1,-1,-1,-1,-1,-1,-1,-1,-1,-1,-1,-1,-1,-1,-1,-1,-1],"split_conditions":[9.9E0,5.95E0,3E0,3.32E0,7.3E0,4E0,5.6E0,3E0,7E0,3E0,3E0,2E0,2E0,1.8E0,1.416E1,2E0,4.4E0,3E0,3E0,2E0,4E0,2E0,1.4484E4,1.4E0,1.1E0,7.7E0,8E0,1.1794E4,2.0298E4,1.1882E4,8.1E0,-9.7620124E-1,-6.5170807E-1,-1.1221639E0,-9.928978E-1,-5.476327E-1,-8.648424E-1,-8.3214425E-2,-5.562298E-1,-3.6394185E-1,2.3796189E-1,-7.117774E-1,-4.3124086E-1,4.1589513E-1,1.2980388E0,-3.080792E-1,-2.9210938E-2,-4.013655E-1,1.6942467E-1,1.5135808E-3,9.700529E-1,6.25648E-1,1.4397111E0,1.779793E0,2.9952817E0,-6.465718E-1,-4.0039164E-1,-2.5711975E-1,6.3777044E-2,3.385753E-2,3.5019237E-1,5.287093E-1,1.0162785E0],"split_indices":[0,0,4,0,1,1,1,4,1,4,4,4,4,1,0,4,1,4,4,4,1,4,2,1,1,1,1,2,2,2,1,0,0,0,0,0,0,0,0,0,0,0,0,0,0,0,0,0,0,0,0,0,0,0,0,0,0,0,0,0,0,0,0],"split_type":[0,0,0,0,0,0,0,0,0,0,0,0,0,0,0,0,0,0,0,0,0,0,0,0,0,0,0,0,0,0,0,0,0,0,0,0,0,0,0,0,0,0,0,0,0,0,0,0,0,0,0,0,0,0,0,0,0,0,0,0,0,0,0],"sum_hessian":[5E3,3.18E3,1.82E3,1.833E3,1.347E3,1.214E3,6.06E2,9.56E2,8.77E2,9.72E2,3.75E2,4.91E2,7.23E2,3.41E2,2.65E2,6.19E2,3.37E2,5.95E2,2.82E2,6.34E2,3.38E2,2.59E2,1.16E2,2.37E2,2.54E2,3.28E2,3.95E2,1.27E2,2.14E2,2.21E2,4.4E1,2.83E2,3.36E2,1.44E2,1.93E2,3.97E2,1.98E2,1.82E2,1E2,3.23E2,3.11E2,1.76E2,1.62E2,1.3E2,1.29E2,5E1,6.6E1,8.2E1,1.55E2,6.6E1,1.88E2,1.93E2,1.35E2,2.66E2,1.29E2,5.6E1,7.1E1,1.4E2,7.4E1,8.2E1,1.39E2,2.5E1,1.9E1],"tree_param":{"num_deleted":"0","num_feature":"5","num_nodes":"63","size_leaf_vector":"1"}},{"base_weights":[-1.2504364E-3,-3.8158622E0,6.662276E0,-6.449749E0,-2.2953877E-1,1.0067913E1,-1.655847E-1,-7.8945565E0,-4.559962E0,-2.9836614E0,3.5925174E0,5.5007286E0,1.7147005E1,-2.1847775E0,3.5527682E0,-9.5751E0,-7.1151013E0,-5.8518734E0,-2.1270337E0,-5.9331465E0,-1.5340395E0,5.9496045E0,-1.9192418E0,1.2188126E0,9.298912E0,1.0867466E1,2.2366282E1,-3.9103346E0,-3.67434E-1,2.3245876E0,6.5262985E0,-1.0127403E0,-8.7592155E-1,-6.090951E-1,-8.9874643E-1,-7.874332E-1,-4.89806E-1,-6.265361E-2,-4.833726E-1,-6.5716463E-1,-4.158906E-1,2.5447724E-2,-4.7604313E-1,2.1309154E-1,9.874865E-1,-3.3173922E-1,-7.805191E-2,-2.707494E-1,3.236179E-1,2.6224625E-1,1.2488674E0,8.882316E-1,1.6731952E0,1.523661E0,2.7284956E0,-5.8281535E-1,-3.153136E-1,-1.8490049E-1,1.18038654E-1,1.3448171E-1,4.646152E-1,2.4654543E-1,7.353825E-1],"categories":[],"categories_nodes":[],"categories_segments":[],"categories_sizes":[],"default_left":[0,0,0,0,0,0,0,0,0,0,0,0,0,0,0,0,0,0,0,0,0,0,0,0,0,0,0,0,0,0,0,0,0,0,0,0,0,0,0,0,0,0,0,0,0,0,0,0,0,0,0,0,0,0,0,0,0,0,0,0,0,0,0],"id":10,"left_children":[1,3,5,7,9,11,13,15,17,19,21,23,25,27,29,31,33,35,37,39,41,43,45,47,49,51,53,55,57,59,61,-1,-1,-1,-1,-1,-1,-1,-1,-1,-1,-1,-1,-1,-1,-1,-1,-1,-1,-1,-1,-1,-1,-1,-1,-1,-1,-1,-1,-1,-1,-1,-1],"loss_changes":[1.27144664E5,3.0046145E4,4.2345766E4,4.9715234E3,1.4200322E4,3.9188477E4,4.5651616E3,1.2915586E3,2.492625E3,3.342999E3,7.351727E3,1.2023662E4,1.5357672E4,1.2341194E3,7.6636426E2,5.8191406E1,1.3124961E3,9.645371E2,1.1260365E3,2.6494434E2,3.0422412E3,5.9147393E3,2.680686E2,2.7731206E3,8.315391E3,2.3893105E3,8.667039E3,2.7496143E2,4.447713E2,3.417657E2,1.9021753E2,0E0,0E0,0E0,0E0,0E0,0E0,0E0,0E0,0E0,0E0,0E0,0E0,0E0,0E0,0E0,0E0,0E0,0E0,0E0,0E0,0E0,0E0,0E0,0E0,0E0,0E0,0E0,0E0,0E0,0E0,0E0,0E0],"parents":[2147483647,0,0,1,1,2,2,3,3,4,4,5,5,6,6,7,7,8,8,9,9,10,10,11,11,12,12,13,13,14,14,15,15,16,16,17,17,18,18,19,19,20,20,21,21,22,22,23,23,24,24,25,25,26,26,27,27,28,28,29,29,30,30],"right_children":[2,4,6,8,10,12,14,16,18,20,22,24,26,28,30,32,34,36,38,40,42,44,46,48,50,52,54,56,58,60,62,-1,-1,-1,-1,-1,-1,-1,-1,-1,-1,-1,-1,-1,-1,-1,-1,-1,-1,-1,-1,-1,-1,-1,-1,-1,-1,-1,-1,-1,-1,-1,-1],"split_conditions":[9.9E0,5.95E0,3E0,3.58E0,6E0,6E0,6.6E0,3.3E0,6.8E0,2E0,3E0,2E0,2E0,3.3E0,1.367E1,2.31E0,3E0,2.2E0,3E0,2.1756E4,3E0,2E0,1.4484E4,2E0,2E0,9E0,1.1794E4,7E-1,1.6138E4,2.0388E4,8.498E3,-1.0127403E0,-8.7592155E-1,-6.090951E-1,-8.9874643E-1,-7.874332E-1,-4.89806E-1,-6.265361E-2,-4.833726E-1,-6.5716463E-1,-4.158906E-1,2.5447724E-2,-4.7604313E-1,2.1309154E-1,9.874865E-1,-3.3173922E-1,-7.805191E-2,-2.707494E-1,3.236179E-1,2.6224625E-1,1.2488674E0,8.882316E-1,1.6731952E0,1.523661E0,2.7284956E0,-5.8281535E-1,-3.153136E-1,-1.8490049E-1,1.18038654E-1,1.3448171E-1,4.646152E-1,2.4654543E-1,7.353825E-1],"split_indices":[0,0,4,0,1,1,1,1,1,1,4,4,4,1,0,0,4,1,4,2,4,4,2,1,1,1,2,1,2,2,2,0,0,0,0,0,0,0,0,0,0,0,0,0,0,0,0,0,0,0,0,0,0,0,0,0,0,0,0,0,0,0,0],"split_type":[0,0,0,0,0,0,0,0,0,0,0,0,0,0,0,0,0,0,0,0,0,0,0,0,0,0,0,0,0,0,0,0,0,0,0,0,0,0,0,0,0,0,0,0,0,0,0,0,0,0,0,0,0,0,0,0,0,0,0,0,0,0,0],"sum_hessian":[5E3,3.18E3,1.82E3,1.833E3,1.347E3,1.214E3,6.06E2,1.037E3,7.96E2,7.83E2,5.64E2,7.39E2,4.75E2,3.93E2,2.13E2,3.25E2,7.12E2,5.19E2,2.77E2,2.57E2,5.26E2,3.95E2,1.69E2,3.48E2,3.91E2,2.17E2,2.58E2,2.01E2,1.92E2,1.52E2,6.1E1,1.87E2,1.38E2,4.63E2,2.49E2,1.64E2,3.55E2,1.79E2,9.8E1,1.87E2,7E1,3.39E2,1.87E2,2.01E2,1.94E2,7.5E1,9.4E1,1.18E2,2.3E2,1.27E2,2.64E2,1.64E2,5.3E1,1.07E2,1.51E2,5.5E1,1.46E2,9.8E1,9.4E1,1.08E2,4.4E1,1.1E1,5E1],"tree_param":{"num_deleted":"0","num_feature":"5","num_nodes":"63","size_leaf_vector":"1"}},{"base_weights":[-5.172538E-4,-3.98861E0,5.199985E0,-6.343017E0,-1.3229494E0,1.4577075E0,9.789018E0,-8.133727E0,-5.3592453E0,-2.8783631E0,2.9038248E0,-6.529131E-1,5.6177216E0,1.3627912E1,2.069297E0,-9.4573957E-1,-7.6402392E0,-7.6137977E0,-4.4281344E0,-5.8680763E0,-1.702312E0,5.1053133E0,-2.040977E0,-3.6651742E0,1.0654229E0,9.097596E0,-9.84454E-1,8.175657E0,1.8293491E1,5.715003E-1,4.1204963E0,-8.7777436E-1,-6.9369364E-1,-7.0386076E-1,-8.6277926E-1,-3.2354602E-1,-6.699184E-1,-6.446548E-1,-3.8692403E-1,-1.6110256E-2,-4.6679828E-1,1.545358E-1,8.5399896E-1,-3.0028424E-1,-3.8927294E-2,-5.3849787E-1,-2.5465128E-1,2.5660706E-1,-2.557382E-1,4.3202877E-1,1.2699548E0,-1.9864587E-1,1.4008538E-1,5.867854E-1,1.3379688E0,1.5223134E0,2.6614556E0,-5.7671983E-2,2.670897E-1,1.3550286E-1,5.2874666E-1],"categories":[],"categories_nodes":[],"categories_segments":[],"categories_sizes":[],"default_left":[0,0,0,0,0,0,0,0,0,0,0,0,0,0,0,0,0,0,0,0,0,0,0,0,0,0,0,0,0,0,0,0,0,0,0,0,0,0,0,0,0,0,0,0,0,0,0,0,0,0,0,0,0,0,0,0,0,0,0,0,0],"id":11,"left_children":[1,3,5,7,9,11,13,15,17,19,21,23,25,27,29,-1,31,33,35,37,39,41,43,45,47,49,51,53,55,57,59,-1,-1,-1,-1,-1,-1,-1,-1,-1,-1,-1,-1,-1,-1,-1,-1,-1,-1,-1,-1,-1,-1,-1,-1,-1,-1,-1,-1,-1,-1],"loss_changes":[1.0374191E5,1.775911E4,3.726925E4,2.604168E3,8.745713E3,1.0513581E4,2.886611E4,2.7460156E2,2.0088438E3,3.4076177E3,3.9075803E3,4.118886E3,9.267776E3,1.6410531E4,9.9613586E2,0E0,2.5271289E2,1.0432617E2,1.8499834E3,2.9187402E2,3.1941807E3,3.0191719E3,1.7517865E2,5.422883E2,2.762895E3,4.487953E3,3.3739532E2,3.5484746E3,8.536867E3,4.57138E2,4.349641E2,0E0,0E0,0E0,0E0,0E0,0E0,0E0,0E0,0E0,0E0,0E0,0E0,0E0,0E0,0E0,0E0,0E0,0E0,0E0,0E0,0E0,0E0,0E0,0E0,0E0,0E0,0E0,0E0,0E0,0E0],"parents":[2147483647,0,0,1,1,2,2,3,3,4,4,5,5,6,6,7,7,8,8,9,9,10,10,11,11,12,12,13,13,14,14,16,16,17,17,18,18,19,19,20,20,21,21,22,22,23,23,24,24,25,25,26,26,27,27,28,28,29,29,30,30],"right_children":[2,4,6,8,10,12,14,16,18,20,22,24,26,28,30,-1,32,34,36,38,40,42,44,46,48,50,52,54,56,58,60,-1,-1,-1,-1,-1,-1,-1,-1,-1,-1,-1,-1,-1,-1,-1,-1,-1,-1,-1,-1,-1,-1,-1,-1,-1,-1,-1,-1,-1,-1],"split_conditions":[8.88E0,4.95E0,5.5E0,2.07E0,7.4E0,1.294E1,3E0,8.9E-1,3.2E0,2.2E0,3E0,1.8E0,3E0,2E0,1.242E1,-9.4573957E-1,3.7E0,3E0,3E0,2.3477E4,3E0,2E0,2.1531E4,7E-1,3E0,2E0,2.1646E4,1.321E1,8.7E0,8.5E0,1.1333E4,-8.7777436E-1,-6.9369364E-1,-7.0386076E-1,-8.6277926E-1,-3.2354602E-1,-6.699184E-1,-6.446548E-1,-3.8692403E-1,-1.6110256E-2,-4.6679828E-1,1.545358E-1,8.5399896E-1,-3.0028424E-1,-3.8927294E-2,-5.3849787E-1,-2.5465128E-1,2.5660706E-1,-2.557382E-1,4.3202877E-1,1.2699548E0,-1.9864587E-1,1.4008538E-1,5.867854E-1,1.3379688E0,1.5223134E0,2.6614556E0,-5.7671983E-2,2.670897E-1,1.3550286E-1,5.2874666E-1],"split_indices":[0,0,1,0,1,0,4,0,1,1,4,1,4,4,0,0,1,4,4,2,4,4,2,1,4,4,2,0,1,1,2,0,0,0,0,0,0,0,0,0,0,0,0,0,0,0,0,0,0,0,0,0,0,0,0,0,0,0,0,0,0],"split_type":[0,0,0,0,0,0,0,0,0,0,0,0,0,0,0,0,0,0,0,0,0,0,0,0,0,0,0,0,0,0,0,0,0,0,0,0,0,0,0,0,0,0,0,0,0,0,0,0,0,0,0,0,0,0,0,0,0,0,0,0,0],"sum_hessian":[5E3,2.83E3,2.17E3,1.502E3,1.328E3,1.196E3,9.74E2,5.3E2,9.72E2,9.71E2,3.57E2,7.94E2,4.02E2,6.5E2,3.24E2,1.39E2,3.91E2,2.82E2,6.9E2,2.73E2,6.98E2,2.47E2,1.1E2,2.88E2,5.06E2,2.63E2,1.39E2,3.01E2,3.49E2,1.88E2,1.36E2,1.45E2,2.46E2,1.85E2,9.7E1,4.54E2,2.36E2,2.1E2,6.3E1,4.6E2,2.38E2,1.22E2,1.25E2,6.9E1,4.1E1,1.12E2,1.76E2,3.58E2,1.48E2,1.14E2,1.49E2,9.8E1,4.1E1,2.1E2,9.1E1,2.57E2,9.2E1,1.22E2,6.6E1,4.1E1,9.5E1],"tree_param":{"num_deleted":"0","num_feature":"5","num_nodes":"61","size_leaf_vector":"1"}},{"base_weights":[-8.353622E-5,-3.1204772E0,5.4507523E0,-5.2629266E0,-2.0328654E-1,8.236983E0,-1.3527957E-1,-6.8075676E0,-4.061263E0,-1.9991057E0,3.8529794E0,1.3965852E0,1.1567561E1,-2.9171517E0,1.7426652E0,-8.129121E0,-6.241168E0,-5.1842036E0,-2.146951E0,-3.9533916E0,-3.1281367E-1,6.0945907E0,-1.1466619E0,-2.7693045E-1,5.9661508E0,6.746735E0,1.5523226E1,-4.261936E0,-1.9760859E0,6.780775E-1,3.8928046E0,-8.543379E-1,-7.4316853E-1,-6.824027E-1,-4.3155262E-1,-4.3289113E-1,-6.8174994E-1,-4.4303903E-1,-1.0538726E-1,-5.4870933E-1,-2.9698756E-1,1.3125479E-1,-3.366706E-1,2.8894696E-1,9.324506E-1,-2.1944919E-1,2.1541271E-2,-1.8702185E-1,2.724915E-1,1.9762455E-1,8.414785E-1,2.12285E-1,9.097196E-1,1.2563642E0,2.282403E0,-5.330061E-1,-3.2141644E-1,-4.164889E-1,-1.374112E-1,-1.1820146E-1,1.7921324E-1,3.0115753E-1,8.148373E-1],"categories":[],"categories_nodes":[],"categories_segments":[],"categories_sizes":[],"default_left":[0,0,0,0,0,0,0,0,0,0,0,0,0,0,0,0,0,0,0,0,0,0,0,0,0,0,0,0,0,0,0,0,0,0,0,0,0,0,0,0,0,0,0,0,0,0,0,0,0,0,0,0,0,0,0,0,0,0,0,0,0,0,0],"id":12,"left_children":[1,3,5,7,9,11,13,15,17,19,21,23,25,27,29,31,33,35,37,39,41,43,45,47,49,51,53,55,57,59,61,-1,-1,-1,-1,-1,-1,-1,-1,-1,-1,-1,-1,-1,-1,-1,-1,-1,-1,-1,-1,-1,-1,-1,-1,-1,-1,-1,-1,-1,-1,-1,-1],"loss_changes":[8.507778E4,1.9879967E4,2.834311E4,3.3765156E3,9.826966E3,2.7664547E4,3.1761743E3,5.4883594E2,2.2116172E3,3.0800522E3,4.6467905E3,3.052901E3,1.5475117E4,3.0163306E2,8.282716E2,4.982422E0,6.0469336E2,8.799004E2,9.537865E2,6.368506E2,2.5011494E3,2.9338057E3,1.8458446E2,1.4064579E3,1.0287405E3,4.0019453E3,9.393336E3,9.478345E1,1.8664691E2,5.0774603E2,4.2547656E2,0E0,0E0,0E0,0E0,0E0,0E0,0E0,0E0,0E0,0E0,0E0,0E0,0E0,0E0,0E0,0E0,0E0,0E0,0E0,0E0,0E0,0E0,0E0,0E0,0E0,0E0,0E0,0E0,0E0,0E0,0E0,0E0],"parents":[2147483647,0,0,1,1,2,2,3,3,4,4,5,5,6,6,7,7,8,8,9,9,10,10,11,11,12,12,13,13,14,14,15,15,16,16,17,17,18,18,19,19,20,20,21,21,22,22,23,23,24,24,25,25,26,26,27,27,28,28,29,29,30,30],"right_children":[2,4,6,8,10,12,14,16,18,20,22,24,26,28,30,32,34,36,38,40,42,44,46,48,50,52,54,56,58,60,62,-1,-1,-1,-1,-1,-1,-1,-1,-1,-1,-1,-1,-1,-1,-1,-1,-1,-1,-1,-1,-1,-1,-1,-1,-1,-1,-1,-1,-1,-1,-1,-1],"split_conditions":[9.9E0,5.95E0,3E0,2.92E0,7E0,3.2E0,4.1E0,1.16E0,6.5E0,3.4E0,3E0,1.351E1,2E0,1.1794E4,8.1E0,6.8E0,7.6E0,3E0,2E0,1.3E0,3E0,2E0,8.08E0,1.927E4,2E0,1.1451E4,1.351E1,1.6E0,7E-1,1.188E1,1.416E1,-8.543379E-1,-7.4316853E-1,-6.824027E-1,-4.3155262E-1,-4.3289113E-1,-6.8174994E-1,-4.4303903E-1,-1.0538726E-1,-5.4870933E-1,-2.9698756E-1,1.3125479E-1,-3.366706E-1,2.8894696E-1,9.324506E-1,-2.1944919E-1,2.1541271E-2,-1.8702185E-1,2.724915E-1,1.9762455E-1,8.414785E-1,2.12285E-1,9.097196E-1,1.2563642E0,2.282403E0,-5.330061E-1,-3.2141644E-1,-4.164889E-1,-1.374112E-1,-1.1820146E-1,1.7921324E-1,3.0115753E-1,8.148373E-1],"split_indices":[0,0,4,0,1,1,1,0,1,1,4,0,4,2,1,1,1,4,4,1,4,4,0,2,4,2,0,1,1,0,0,0,0,0,0,0,0,0,0,0,0,0,0,0,0,0,0,0,0,0,0,0,0,0,0,0,0,0,0,0,0,0,0],"split_type":[0,0,0,0,0,0,0,0,0,0,0,0,0,0,0,0,0,0,0,0,0,0,0,0,0,0,0,0,0,0,0,0,0,0,0,0,0,0,0,0,0,0,0,0,0,0,0,0,0,0,0,0,0,0,0,0,0,0,0,0,0,0,0],"sum_hessian":[5E3,3.18E3,1.82E3,1.833E3,1.347E3,1.214E3,6.06E2,8E2,1.033E3,9.34E2,4.13E2,3.98E2,8.16E2,2.44E2,3.62E2,2.36E2,5.64E2,6.5E2,3.83E2,4.32E2,5.02E2,2.85E2,1.28E2,2.92E2,1.06E2,3.69E2,4.47E2,9.9E1,1.45E2,2.43E2,1.19E2,1.41E2,9.5E1,4.31E2,1.33E2,4.29E2,2.21E2,1.23E2,2.6E2,1.67E2,2.65E2,3.28E2,1.74E2,1.44E2,1.41E2,7.2E1,5.6E1,1.91E2,1.01E2,4.1E1,6.5E1,1.25E2,2.44E2,3.2E2,1.27E2,4.7E1,5.2E1,3E1,1.15E2,9.1E1,1.52E2,1E2,1.9E1],"tree_param":{"num_deleted":"0","num_feature":"5","num_nodes":"63","size_leaf_vector":"1"}},{"base_weights":[1.5521226E-4,-2.5682273E0,5.441155E0,-4.6424303E0,1.069195E-1,8.174774E0,3.977427E-2,-5.7472086E0,-3.1583283E0,-1.637416E0,3.9128532E0,5.394143E0,1.62219E1,-1.528962E0,3.0832477E0,-5.0571346E0,-7.0289564E0,-5.399444E0,-2.3055396E0,-3.6759763E0,-2.0769477E-1,6.067087E0,-6.3552433E-1,1.8518789E0,8.472548E0,1.10873785E1,2.017651E1,-2.9137933E0,-3.9235152E-2,9.987013E-1,4.186683E0,-6.7535317E-1,-3.556218E-1,-7.618219E-1,-6.682222E-1,-6.43613E-1,-4.4874272E-1,-1.16455935E-1,-4.4867095E-1,-5.051692E-1,-2.827065E-1,-1.9160657E-1,2.0954132E-1,3.0254138E-1,9.4333136E-1,-2.2571874E-1,9.641557E-3,-8.355569E-2,4.1156211E-1,3.8268098E-1,1.1330497E0,8.551592E-1,1.5653464E0,1.6679064E0,3.0690691E0,-3.9109606E-1,-1.817773E-1,-2.1153934E-1,8.7048076E-2,3.797547E-2,3.03654E-1,3.4053114E-1,7.019684E-1],"categories":[],"categories_nodes":[],"categories_segments":[],"categories_sizes":[],"default_left":[0,0,0,0,0,0,0,0,0,0,0,0,0,0,0,0,0,0,0,0,0,0,0,0,0,0,0,0,0,0,0,0,0,0,0,0,0,0,0,0,0,0,0,0,0,0,0,0,0,0,0,0,0,0,0,0,0,0,0,0,0,0,0],"id":13,"left_children":[1,3,5,7,9,11,13,15,17,19,21,23,25,27,29,31,33,35,37,39,41,43,45,47,49,51,53,55,57,59,61,-1,-1,-1,-1,-1,-1,-1,-1,-1,-1,-1,-1,-1,-1,-1,-1,-1,-1,-1,-1,-1,-1,-1,-1,-1,-1,-1,-1,-1,-1,-1,-1],"loss_changes":[6.990079E4,1.8855309E4,2.3683242E4,3.1200469E3,9.8650625E3,2.374304E4,2.582894E3,9.338711E2,1.5528228E3,2.9691865E3,4.5796465E3,8.631594E3,5.3195703E3,7.36384E2,4.1904846E2,1.7990254E3,2.69375E1,1.838501E2,1.4755344E3,4.762202E2,2.3647527E3,3.217211E3,1.7944858E2,2.2543936E3,5.586207E3,1.2671504E3,5.1143477E3,1.950802E2,3.2858896E2,8.08322E1,2.417312E2,0E0,0E0,0E0,0E0,0E0,0E0,0E0,0E0,0E0,0E0,0E0,0E0,0E0,0E0,0E0,0E0,0E0,0E0,0E0,0E0,0E0,0E0,0E0,0E0,0E0,0E0,0E0,0E0,0E0,0E0,0E0,0E0],"parents":[2147483647,0,0,1,1,2,2,3,3,4,4,5,5,6,6,7,7,8,8,9,9,10,10,11,11,12,12,13,13,14,14,15,15,16,16,17,17,18,18,19,19,20,20,21,21,22,22,23,23,24,24,25,25,26,26,27,27,28,28,29,29,30,30],"right_children":[2,4,6,8,10,12,14,16,18,20,22,24,26,28,30,32,34,36,38,40,42,44,46,48,50,52,54,56,58,60,62,-1,-1,-1,-1,-1,-1,-1,-1,-1,-1,-1,-1,-1,-1,-1,-1,-1,-1,-1,-1,-1,-1,-1,-1,-1,-1,-1,-1,-1,-1,-1,-1],"split_conditions":[1.051E1,6.19E0,3E0,3.76E0,7E0,7.6E0,6.6E0,3E0,2.9E0,3E0,3E0,2E0,2E0,3.3E0,1.1614E4,2E0,3.6E0,1.3E0,3E0,1.1535E4,1.7949E4,2E0,1.1614E4,1.4368E4,2.8E0,2.0298E4,1.376E1,1.5425E4,9.693E3,8.9E0,1.427E1,-6.7535317E-1,-3.556218E-1,-7.618219E-1,-6.682222E-1,-6.43613E-1,-4.4874272E-1,-1.16455935E-1,-4.4867095E-1,-5.051692E-1,-2.827065E-1,-1.9160657E-1,2.0954132E-1,3.0254138E-1,9.4333136E-1,-2.2571874E-1,9.641557E-3,-8.355569E-2,4.1156211E-1,3.8268098E-1,1.1330497E0,8.551592E-1,1.5653464E0,1.6679064E0,3.0690691E0,-3.9109606E-1,-1.817773E-1,-2.1153934E-1,8.7048076E-2,3.797547E-2,3.03654E-1,3.4053114E-1,7.019684E-1],"split_indices":[0,0,4,0,1,1,1,4,1,1,4,4,4,1,2,4,1,1,4,2,2,4,2,2,1,2,0,2,2,1,0,0,0,0,0,0,0,0,0,0,0,0,0,0,0,0,0,0,0,0,0,0,0,0,0,0,0,0,0,0,0,0,0],"split_type":[0,0,0,0,0,0,0,0,0,0,0,0,0,0,0,0,0,0,0,0,0,0,0,0,0,0,0,0,0,0,0,0,0,0,0,0,0,0,0,0,0,0,0,0,0,0,0,0,0,0,0,0,0,0,0,0,0,0,0,0,0,0,0],"sum_hessian":[5E3,3.397E3,1.603E3,1.913E3,1.484E3,1.064E3,5.39E2,1.095E3,8.18E2,1.018E3,4.66E2,7.92E2,2.72E2,3.56E2,1.83E2,7.15E2,3.8E2,2.24E2,5.94E2,4.19E2,5.99E2,3.16E2,1.5E2,3.69E2,4.23E2,1.2E2,1.52E2,1.84E2,1.72E2,6.4E1,1.19E2,3.34E2,3.81E2,1.33E2,2.47E2,1.02E2,1.22E2,3.91E2,2.03E2,1.58E2,2.61E2,3.44E2,2.55E2,1.67E2,1.49E2,4.6E1,1.04E2,1.69E2,2E2,1.62E2,2.61E2,7.9E1,4.1E1,1.16E2,3.6E1,9.5E1,8.9E1,5.2E1,1.2E2,5E1,1.4E1,9.5E1,2.4E1],"tree_param":{"num_deleted":"0","num_feature":"5","num_nodes":"63","size_leaf_vector":"1"}},{"base_weights":[1.3053314E-3,-3.4558785E0,3.299134E0,-5.005875E0,-1.8761498E0,1.2398919E0,8.005514E0,-6.2060175E0,-4.3073196E0,-7.108384E-1,-4.1426663E0,-1.0313333E-1,5.5019584E0,1.0947113E1,1.8823396E0,-7.1547174E-1,-5.760428E0,-4.9146776E0,-2.188151E0,-2.9521303E0,1.5660278E0,-4.8094673E0,-2.2273862E0,-3.059196E0,1.0299785E0,8.46037E0,1.4859168E-1,6.64281E0,1.4881572E1,8.386858E-1,4.270496E0,-6.2645286E-1,-4.9349037E-1,-6.34968E-1,-4.3646213E-1,-9.58914E-2,-4.6724793E-1,-3.7571305E-1,1.4647298E-1,-1.8186004E-1,3.0510768E-1,-5.366278E-1,-4.0821838E-1,-3.0285928E-1,-1.1627825E-1,-4.8255092E-1,-2.149672E-1,-5.15539E-2,4.0527388E-1,3.686969E-1,1.0839965E0,-1.4579228E-1,1.5210487E-1,3.4277856E-1,1.0177563E0,9.269826E-1,1.9458817E0,3.4245923E-2,3.726531E-1,1.4732666E-1,4.9800435E-1],"categories":[],"categories_nodes":[],"categories_segments":[],"categories_sizes":[],"default_left":[0,0,0,0,0,0,0,0,0,0,0,0,0,0,0,0,0,0,0,0,0,0,0,0,0,0,0,0,0,0,0,0,0,0,0,0,0,0,0,0,0,0,0,0,0,0,0,0,0,0,0,0,0,0,0,0,0,0,0,0,0],"id":14,"left_children":[1,3,5,7,9,11,13,15,17,19,21,23,25,27,29,-1,31,33,35,37,39,41,43,45,47,49,51,53,55,57,59,-1,-1,-1,-1,-1,-1,-1,-1,-1,-1,-1,-1,-1,-1,-1,-1,-1,-1,-1,-1,-1,-1,-1,-1,-1,-1,-1,-1,-1,-1],"loss_changes":[5.7028805E4,5.9700254E3,2.480051E4,1.00613477E3,3.195545E3,1.0200847E4,1.4010684E4,1.494375E2,9.957539E2,4.0922236E3,5.141802E2,4.5451396E3,6.761338E3,8.809004E3,6.294901E2,0E0,9.892285E1,4.5141016E2,5.3299316E2,1.4419541E3,2.0060315E3,1.0120215E2,8.8598816E1,5.9367236E2,4.585055E3,3.0836953E3,3.3956293E2,2.8402861E3,6.8576797E3,2.5380234E2,1.4549023E2,0E0,0E0,0E0,0E0,0E0,0E0,0E0,0E0,0E0,0E0,0E0,0E0,0E0,0E0,0E0,0E0,0E0,0E0,0E0,0E0,0E0,0E0,0E0,0E0,0E0,0E0,0E0,0E0,0E0,0E0],"parents":[2147483647,0,0,1,1,2,2,3,3,4,4,5,5,6,6,7,7,8,8,9,9,10,10,11,11,12,12,13,13,14,14,16,16,17,17,18,18,19,19,20,20,21,21,22,22,23,23,24,24,25,25,26,26,27,27,28,28,29,29,30,30],"right_children":[2,4,6,8,10,12,14,16,18,20,22,24,26,28,30,-1,32,34,36,38,40,42,44,46,48,50,52,54,56,58,60,-1,-1,-1,-1,-1,-1,-1,-1,-1,-1,-1,-1,-1,-1,-1,-1,-1,-1,-1,-1,-1,-1,-1,-1,-1,-1,-1,-1,-1,-1],"split_conditions":[7.74E0,4.14E0,7.1E0,1.81E0,3E0,1.332E1,3E0,8.9E-1,7.7E0,2E0,7.6E0,1.8E0,3E0,2E0,1.294E1,-7.1547174E-1,5.7E0,2.2E0,3E0,8.7E0,3.3E0,1.7565E4,1.7667E4,6E-1,2.062E4,2.5E0,3.3E0,1.105E1,1.2903E4,9.6E0,8.498E3,-6.2645286E-1,-4.9349037E-1,-6.34968E-1,-4.3646213E-1,-9.58914E-2,-4.6724793E-1,-3.7571305E-1,1.4647298E-1,-1.8186004E-1,3.0510768E-1,-5.366278E-1,-4.0821838E-1,-3.0285928E-1,-1.1627825E-1,-4.8255092E-1,-2.149672E-1,-5.15539E-2,4.0527388E-1,3.686969E-1,1.0839965E0,-1.4579228E-1,1.5210487E-1,3.4277856E-1,1.0177563E0,9.269826E-1,1.9458817E0,3.4245923E-2,3.726531E-1,1.4732666E-1,4.9800435E-1],"split_indices":[0,0,1,0,4,0,4,0,1,4,1,1,4,4,0,0,1,1,4,1,1,2,2,1,2,1,1,0,2,1,2,0,0,0,0,0,0,0,0,0,0,0,0,0,0,0,0,0,0,0,0,0,0,0,0,0,0,0,0,0,0],"split_type":[0,0,0,0,0,0,0,0,0,0,0,0,0,0,0,0,0,0,0,0,0,0,0,0,0,0,0,0,0,0,0,0,0,0,0,0,0,0,0,0,0,0,0,0,0,0,0,0,0,0,0,0,0,0,0,0,0,0,0,0,0],"sum_hessian":[5E3,2.441E3,2.559E3,1.231E3,1.21E3,1.781E3,7.78E2,4.5E2,7.81E2,8E2,4.1E2,1.355E3,4.26E2,5.25E2,2.53E2,1.39E2,3.11E2,6.06E2,1.75E2,4.03E2,3.97E2,3.03E2,1.07E2,3.75E2,9.8E2,2.74E2,1.52E2,2.52E2,2.73E2,1.77E2,7.6E1,1.89E2,1.22E2,1.65E2,4.41E2,1.18E2,5.7E1,3.41E2,6.2E1,1.21E2,2.76E2,1.68E2,1.35E2,6E1,4.7E1,1.26E2,2.49E2,6.49E2,3.31E2,9.2E1,1.82E2,7E1,8.2E1,1.33E2,1.19E2,1.24E2,1.49E2,1.52E2,2.5E1,1.6E1,6E1],"tree_param":{"num_deleted":"0","num_feature":"5","num_nodes":"61","size_leaf_vector":"1"}},{"base_weights":[1.4670858E-3,-2.0999298E0,4.5317335E0,-3.7225752E0,1.6551274E-1,6.8457704E0,-9.816621E-3,-5.2313275E0,-2.9619782E0,-2.5178277E0,1.9688756E0,4.547259E0,1.356932E1,-1.3340122E0,2.5517955E0,-6.0519032E0,-4.6166945E0,-3.6500556E0,-8.487079E-1,-3.90506E0,-1.651042E0,3.6301816E0,-1.4316882E0,1.4165491E0,7.2432947E0,8.345862E0,1.6850876E1,-2.8558369E0,-4.4880655E-1,1.7828486E0,4.940449E0,-6.636002E-1,-5.656849E-1,-3.9231995E-1,-5.737491E-1,-5.345434E-1,-3.1395668E-1,3.2529812E-2,-3.136191E-1,-4.995323E-1,-3.2830632E-1,-7.231884E-2,-3.5084838E-1,1.0086832E-1,6.2849337E-1,-2.110867E-1,5.7224445E-3,-1.0281028E-1,3.3604753E-1,4.6682844E-1,1.1723258E0,6.09203E-1,1.2003835E0,1.1560633E0,2.10134E0,-3.900317E-1,-2.0623866E-1,-1.6238478E-1,6.693256E-2,1.1673631E-1,4.2030993E-1,4.299185E-1,7.71582E-1],"categories":[],"categories_nodes":[],"categories_segments":[],"categories_sizes":[],"default_left":[0,0,0,0,0,0,0,0,0,0,0,0,0,0,0,0,0,0,0,0,0,0,0,0,0,0,0,0,0,0,0,0,0,0,0,0,0,0,0,0,0,0,0,0,0,0,0,0,0,0,0,0,0,0,0,0,0,0,0,0,0,0,0],"id":15,"left_children":[1,3,5,7,9,11,13,15,17,19,21,23,25,27,29,31,33,35,37,39,41,43,45,47,49,51,53,55,57,59,61,-1,-1,-1,-1,-1,-1,-1,-1,-1,-1,-1,-1,-1,-1,-1,-1,-1,-1,-1,-1,-1,-1,-1,-1,-1,-1,-1,-1,-1,-1,-1,-1],"loss_changes":[4.7618477E4,1.2561542E4,1.6657328E4,2.2692832E3,6.9102627E3,1.6165168E4,1.8215564E3,3.0795703E2,1.9250303E3,6.8374976E2,4.829765E3,6.6070957E3,4.4360312E3,4.7560144E2,3.273169E2,2.7533203E1,2.767373E2,8.4868945E2,8.791848E2,1.3279077E2,6.092817E2,3.988372E3,2.8427863E2,1.7332639E3,4.801908E3,7.9254004E2,3.3464531E3,9.969275E1,2.9670343E2,2.0364154E2,4.5137085E1,0E0,0E0,0E0,0E0,0E0,0E0,0E0,0E0,0E0,0E0,0E0,0E0,0E0,0E0,0E0,0E0,0E0,0E0,0E0,0E0,0E0,0E0,0E0,0E0,0E0,0E0,0E0,0E0,0E0,0E0,0E0,0E0],"parents":[2147483647,0,0,1,1,2,2,3,3,4,4,5,5,6,6,7,7,8,8,9,9,10,10,11,11,12,12,13,13,14,14,15,15,16,16,17,17,18,18,19,19,20,20,21,21,22,22,23,23,24,24,25,25,26,26,27,27,28,28,29,29,30,30],"right_children":[2,4,6,8,10,12,14,16,18,20,22,24,26,28,30,32,34,36,38,40,42,44,46,48,50,52,54,56,58,60,62,-1,-1,-1,-1,-1,-1,-1,-1,-1,-1,-1,-1,-1,-1,-1,-1,-1,-1,-1,-1,-1,-1,-1,-1,-1,-1,-1,-1,-1,-1,-1,-1],"split_conditions":[1.056E1,6.43E0,3E0,2.52E0,4.2E0,7.6E0,6.6E0,4.2E0,7.5E0,1.1717E4,3E0,2E0,1.2246E4,2.2E0,2.242E4,1.6E0,3E0,1.8E0,3E0,2E0,3E0,2E0,8.3E0,3.2E0,1.995E4,1.332E1,2E0,1.1451E4,1.5425E4,9.3E0,1.46E1,-6.636002E-1,-5.656849E-1,-3.9231995E-1,-5.737491E-1,-5.345434E-1,-3.1395668E-1,3.2529812E-2,-3.136191E-1,-4.995323E-1,-3.2830632E-1,-7.231884E-2,-3.5084838E-1,1.0086832E-1,6.2849337E-1,-2.110867E-1,5.7224445E-3,-1.0281028E-1,3.3604753E-1,4.6682844E-1,1.1723258E0,6.09203E-1,1.2003835E0,1.1560633E0,2.10134E0,-3.900317E-1,-2.0623866E-1,-1.6238478E-1,6.693256E-2,1.1673631E-1,4.2030993E-1,4.299185E-1,7.71582E-1],"split_indices":[0,0,4,0,1,1,1,1,1,2,4,4,2,1,2,1,4,1,4,4,4,4,1,1,2,0,4,2,2,1,0,0,0,0,0,0,0,0,0,0,0,0,0,0,0,0,0,0,0,0,0,0,0,0,0,0,0,0,0,0,0,0,0],"split_type":[0,0,0,0,0,0,0,0,0,0,0,0,0,0,0,0,0,0,0,0,0,0,0,0,0,0,0,0,0,0,0,0,0,0,0,0,0,0,0,0,0,0,0,0,0,0,0,0,0,0,0,0,0,0,0,0,0,0,0,0,0,0,0],"sum_hessian":[5E3,3.416E3,1.584E3,1.99E3,1.426E3,1.049E3,5.35E2,6.65E2,1.325E3,5.73E2,8.53E2,7.83E2,2.66E2,3.53E2,1.82E2,2.81E2,3.84E2,9.99E2,3.26E2,2.19E2,3.54E2,5.73E2,2.8E2,3.63E2,4.2E2,1.04E2,1.62E2,1.29E2,2.24E2,1.39E2,4.3E1,1.07E2,1.74E2,2.4E2,1.44E2,2.29E2,7.7E2,2.16E2,1.1E2,7.7E1,1.42E2,2.37E2,1.17E2,2.89E2,2.84E2,1.92E2,8.8E1,1.61E2,2.02E2,2.68E2,1.52E2,6.6E1,3.8E1,7.3E1,8.9E1,5.4E1,7.5E1,1.09E2,1.15E2,1.12E2,2.7E1,3.7E1,6E0],"tree_param":{"num_deleted":"0","num_feature":"5","num_nodes":"63","size_leaf_vector":"1"}},{"base_weights":[2.1070754E-3,-1.6825927E0,4.6438837E0,-3.3519876E0,2.9684022E-1,6.8078933E0,3.1515464E-1,-4.2961965E0,-2.3211272E0,-1.3986473E0,2.9192584E0,4.8352165E0,1.388652E1,-9.6907717E-1,2.5428996E0,-3.7443986E0,-5.316282E0,-2.7605016E0,4.602911E-1,-2.8625462E0,-1.5458363E-1,4.4597797E0,-4.0309584E-1,1.5496644E0,7.12331E0,9.247039E0,1.760716E1,-3.1127055E0,-4.265402E-1,2.0036519E0,6.09383E0,-5.2253616E-1,-2.4641636E-1,-5.6787264E-1,-5.0174534E-1,-4.2474255E-1,-2.0160778E-1,1.7359957E-1,-1.7817813E-1,-5.046092E-1,-2.5112912E-1,1.092549E-1,-2.6013383E-1,1.914535E-1,7.371634E-1,-1.6482572E-1,5.2638866E-2,-1.9109063E-1,3.218448E-1,2.5677907E-1,9.475921E-1,6.7031664E-1,1.3489343E0,1.6113657E-1,1.9442345E0,-3.8283333E-1,-2.1757732E-1,-1.1274078E-1,1.037786E-1,5.990537E-2,2.7996966E-1,1.26997E-1,6.2715244E-1],"categories":[],"categories_nodes":[],"categories_segments":[],"categories_sizes":[],"default_left":[0,0,0,0,0,0,0,0,0,0,0,0,0,0,0,0,0,0,0,0,0,0,0,0,0,0,0,0,0,0,0,0,0,0,0,0,0,0,0,0,0,0,0,0,0,0,0,0,0,0,0,0,0,0,0,0,0,0,0,0,0,0,0],"id":16,"left_children":[1,3,5,7,9,11,13,15,17,19,21,23,25,27,29,31,33,35,37,39,41,43,45,47,49,51,53,55,57,59,61,-1,-1,-1,-1,-1,-1,-1,-1,-1,-1,-1,-1,-1,-1,-1,-1,-1,-1,-1,-1,-1,-1,-1,-1,-1,-1,-1,-1,-1,-1,-1,-1],"loss_changes":[3.9115633E4,1.2128344E4,1.2475246E4,1.9279629E3,7.4738286E3,1.233275E4,1.275583E3,5.643672E2,1.1671392E3,1.858986E3,3.3797812E3,5.221246E3,3.1687227E3,3.278007E2,2.999077E2,1.2707021E3,1.071582E1,9.035239E2,3.7778223E2,3.4704175E2,1.6902814E3,3.32842E3,2.4391286E2,1.6635586E3,4.369785E3,8.5926514E2,3.0803203E3,2.988861E1,2.3413983E2,1.582143E2,1.0036011E1,0E0,0E0,0E0,0E0,0E0,0E0,0E0,0E0,0E0,0E0,0E0,0E0,0E0,0E0,0E0,0E0,0E0,0E0,0E0,0E0,0E0,0E0,0E0,0E0,0E0,0E0,0E0,0E0,0E0,0E0,0E0,0E0],"parents":[2147483647,0,0,1,1,2,2,3,3,4,4,5,5,6,6,7,7,8,8,9,9,10,10,11,11,12,12,13,13,14,14,15,15,16,16,17,17,18,18,19,19,20,20,21,21,22,22,23,23,24,24,25,25,26,26,27,27,28,28,29,29,30,30],"right_children":[2,4,6,8,10,12,14,16,18,20,22,24,26,28,30,32,34,36,38,40,42,44,46,48,50,52,54,56,58,60,62,-1,-1,-1,-1,-1,-1,-1,-1,-1,-1,-1,-1,-1,-1,-1,-1,-1,-1,-1,-1,-1,-1,-1,-1,-1,-1,-1,-1,-1,-1,-1,-1],"split_conditions":[1.12E1,6.43E0,3E0,3.58E0,6.4E0,7.9E0,6.2E0,3E0,8.7E0,1.4484E4,3E0,3.1E0,2E0,1E0,1.46E1,2E0,4.4E0,2E0,3E0,8E-1,3E0,1.5883E4,1.4484E4,1.1E0,1.0954E4,1.948E4,3.747E3,1.5425E4,2.1646E4,1.1882E4,6.511E3,-5.2253616E-1,-2.4641636E-1,-5.6787264E-1,-5.0174534E-1,-4.2474255E-1,-2.0160778E-1,1.7359957E-1,-1.7817813E-1,-5.046092E-1,-2.5112912E-1,1.092549E-1,-2.6013383E-1,1.914535E-1,7.371634E-1,-1.6482572E-1,5.2638866E-2,-1.9109063E-1,3.218448E-1,2.5677907E-1,9.475921E-1,6.7031664E-1,1.3489343E0,1.6113657E-1,1.9442345E0,-3.8283333E-1,-2.1757732E-1,-1.1274078E-1,1.037786E-1,5.990537E-2,2.7996966E-1,1.26997E-1,6.2715244E-1],"split_indices":[0,0,4,0,1,1,1,4,1,2,4,1,4,1,0,4,1,4,4,1,4,2,2,1,2,2,2,2,2,2,2,0,0,0,0,0,0,0,0,0,0,0,0,0,0,0,0,0,0,0,0,0,0,0,0,0,0,0,0,0,0,0,0],"split_type":[0,0,0,0,0,0,0,0,0,0,0,0,0,0,0,0,0,0,0,0,0,0,0,0,0,0,0,0,0,0,0,0,0,0,0,0,0,0,0,0,0,0,0,0,0,0,0,0,0,0,0,0,0,0,0,0,0,0,0,0,0,0,0],"sum_hessian":[5E3,3.669E3,1.331E3,1.99E3,1.679E3,8.87E2,4.44E2,1.037E3,9.53E2,1.02E3,6.59E2,6.95E2,1.92E2,2.82E2,1.62E2,6.76E2,3.61E2,8.23E2,1.3E2,4.68E2,5.52E2,4.5E2,2.09E2,2.86E2,4.09E2,8.7E1,1.05E2,5.6E1,2.26E2,1.42E2,2E1,3.12E2,3.64E2,1.55E2,2.06E2,2.73E2,5.5E2,8.3E1,4.7E1,6.3E1,4.05E2,3.66E2,1.86E2,2.41E2,2.09E2,8.9E1,1.2E2,9.3E1,1.93E2,1.4E2,2.69E2,5.6E1,3.1E1,1.1E1,9.4E1,3E1,2.6E1,1.53E2,7.3E1,5.2E1,9E1,1E0,1.9E1],"tree_param":{"num_deleted":"0","num_feature":"5","num_nodes":"63","size_leaf_vector":"1"}},{"base_weights":[2.5730731E-3,-1.3733761E0,4.6851583E0,-3.0180292E0,3.728273E-1,6.751411E0,5.402916E-1,-4.0602236E0,-2.2300568E0,-4.5254463E-1,4.982018E0,4.892268E0,1.3352134E1,-6.304788E-1,2.5663016E0,-4.742798E0,-3.3697758E0,-1.4138458E0,-3.757648E0,-2.0583746E0,8.391788E-1,7.0848103E0,7.0185566E-1,1.7454838E0,7.3778033E0,8.652981E0,1.751972E1,-2.979931E0,-2.0335583E-1,2.0234315E0,5.52036E0,-5.3873074E-1,-4.3379146E-1,-2.724176E-1,-4.5647007E-1,-3.673976E-1,6.1349995E-2,-4.498427E-1,-2.8659758E-1,-3.9508438E-1,-1.4736305E-1,-8.446711E-2,2.639367E-1,1.6186683E-1,8.522076E-1,-1.5439913E-1,1.4827615E-1,-4.0139813E-2,3.753244E-1,2.4132455E-2,8.893094E-1,6.34154E-1,1.2101984E0,9.707033E-1,2.1062913E0,-3.0411875E-1,-3.8734723E-2,-1.5651016E-1,4.400625E-2,6.2191736E-2,2.7798173E-1,4.057384E-1,6.723895E-1],"categories":[],"categories_nodes":[],"categories_segments":[],"categories_sizes":[],"default_left":[0,0,0,0,0,0,0,0,0,0,0,0,0,0,0,0,0,0,0,0,0,0,0,0,0,0,0,0,0,0,0,0,0,0,0,0,0,0,0,0,0,0,0,0,0,0,0,0,0,0,0,0,0,0,0,0,0,0,0,0,0,0,0],"id":17,"left_children":[1,3,5,7,9,11,13,15,17,19,21,23,25,27,29,31,33,35,37,39,41,43,45,47,49,51,53,55,57,59,61,-1,-1,-1,-1,-1,-1,-1,-1,-1,-1,-1,-1,-1,-1,-1,-1,-1,-1,-1,-1,-1,-1,-1,-1,-1,-1,-1,-1,-1,-1,-1,-1],"loss_changes":[3.2227875E4,1.1103885E4,9.725443E3,1.6259941E3,7.1391147E3,9.236617E3,9.0060315E2,3.8743555E2,1.4110942E3,3.303994E3,2.5601104E3,4.6252373E3,3.0993672E3,2.4123874E2,2.1174005E2,8.831641E1,3.1851416E2,3.4021462E3,2.4801758E2,7.798711E2,2.6788198E3,1.4867588E3,1.6889987E2,1.1351481E3,3.5772344E3,5.610283E2,2.2038613E3,4.6980896E0,1.8030402E2,1.24421295E2,9.694153E0,0E0,0E0,0E0,0E0,0E0,0E0,0E0,0E0,0E0,0E0,0E0,0E0,0E0,0E0,0E0,0E0,0E0,0E0,0E0,0E0,0E0,0E0,0E0,0E0,0E0,0E0,0E0,0E0,0E0,0E0,0E0,0E0],"parents":[2147483647,0,0,1,1,2,2,3,3,4,4,5,5,6,6,7,7,8,8,9,9,10,10,11,11,12,12,13,13,14,14,15,15,16,16,17,17,18,18,19,19,20,20,21,21,22,22,23,23,24,24,25,25,26,26,27,27,28,28,29,29,30,30],"right_children":[2,4,6,8,10,12,14,16,18,20,22,24,26,28,30,32,34,36,38,40,42,44,46,48,50,52,54,56,58,60,62,-1,-1,-1,-1,-1,-1,-1,-1,-1,-1,-1,-1,-1,-1,-1,-1,-1,-1,-1,-1,-1,-1,-1,-1,-1,-1,-1,-1,-1,-1,-1,-1],"split_conditions":[1.177E1,6.43E0,3E0,4.4E0,8.6E0,7.9E0,6.2E0,3.32E0,3E0,3.9E0,3E0,2E0,2E0,7E-1,1.46E1,1.7E0,3E0,2E0,3.71E0,9E-1,1.6746E4,6.736E3,8.21E3,1.5312E4,1.4E0,1.8663E4,9.47E3,2.8517E4,9.845E3,1.1614E4,8.8E0,-5.3873074E-1,-4.3379146E-1,-2.724176E-1,-4.5647007E-1,-3.673976E-1,6.1349995E-2,-4.498427E-1,-2.8659758E-1,-3.9508438E-1,-1.4736305E-1,-8.446711E-2,2.639367E-1,1.6186683E-1,8.522076E-1,-1.5439913E-1,1.4827615E-1,-4.0139813E-2,3.753244E-1,2.4132455E-2,8.893094E-1,6.34154E-1,1.2101984E0,9.707033E-1,2.1062913E0,-3.0411875E-1,-3.8734723E-2,-1.5651016E-1,4.400625E-2,6.2191736E-2,2.7798173E-1,4.057384E-1,6.723895E-1],"split_indices":[0,0,4,1,1,1,1,0,4,1,4,4,4,1,0,1,4,4,0,1,2,2,2,2,1,2,2,2,2,2,1,0,0,0,0,0,0,0,0,0,0,0,0,0,0,0,0,0,0,0,0,0,0,0,0,0,0,0,0,0,0,0,0],"split_type":[0,0,0,0,0,0,0,0,0,0,0,0,0,0,0,0,0,0,0,0,0,0,0,0,0,0,0,0,0,0,0,0,0,0,0,0,0,0,0,0,0,0,0,0,0,0,0,0,0,0,0,0,0,0,0,0,0,0,0,0,0,0,0],"sum_hessian":[5E3,3.865E3,1.135E3,1.99E3,1.875E3,7.57E2,3.78E2,8.55E2,1.135E3,1.591E3,2.84E2,5.92E2,1.65E2,2.4E2,1.38E2,4.27E2,4.28E2,7.41E2,3.94E2,7.09E2,8.82E2,1.9E2,9.4E1,2.62E2,3.3E2,7.9E1,8.6E1,3.6E1,2.04E2,1.18E2,2E1,1.6E2,2.67E2,2.8E2,1.48E2,3.5E2,3.91E2,2.13E2,1.81E2,1.66E2,5.43E2,4.56E2,4.26E2,4E1,1.5E2,2.4E1,7E1,1.27E2,1.35E2,5.8E1,2.72E2,4.9E1,3E1,2.8E1,5.8E1,3.5E1,1E0,6.5E1,1.39E2,4.2E1,7.6E1,1.1E1,9E0],"tree_param":{"num_deleted":"0","num_feature":"5","num_nodes":"63","size_leaf_vector":"1"}},{"base_weights":[3.3223315E-3,-1.9707501E0,2.660726E0,-3.1838446E0,-7.1062595E-1,-1.0248763E-1,4.5842857E0,-4.1572595E0,-2.6258326E0,-1.2733868E0,3.2136388E0,-1.0220405E0,2.7468863E0,6.5367684E0,7.466328E-1,-5.175854E-1,-3.7828708E0,-4.0273623E0,-1.9736742E0,-4.031411E-1,-2.9151082E0,4.7282653E0,-4.1922835E-1,-2.9590852E0,-2.4914885E-1,4.555589E0,-6.6598463E-1,3.3398438E0,9.250285E0,2.0396063E-2,2.4128785E0,-4.0536705E-1,-2.6760826E-1,-4.9469247E-1,-3.4618828E-1,-1.0455505E-2,-3.8660488E-1,-2.3352961E-1,1.6998057E-1,-3.5717043E-1,-2.2510612E-1,1.5697552E-1,7.811724E-1,-2.1062596E-1,5.0856657E-2,-3.2532004E-1,-5.7861168E-2,-1.7165148E-1,9.201469E-2,-4.0268227E-2,6.028435E-1,-1.3195626E-1,4.7822013E-2,1.8820606E-1,7.633676E-1,4.209612E-1,1.1681867E0,-5.9356224E-2,1.7822713E-1,2.5792016E-2,3.378501E-1],"categories":[],"categories_nodes":[],"categories_segments":[],"categories_sizes":[],"default_left":[0,0,0,0,0,0,0,0,0,0,0,0,0,0,0,0,0,0,0,0,0,0,0,0,0,0,0,0,0,0,0,0,0,0,0,0,0,0,0,0,0,0,0,0,0,0,0,0,0,0,0,0,0,0,0,0,0,0,0,0,0],"id":18,"left_children":[1,3,5,7,9,11,13,15,17,19,21,23,25,27,29,-1,31,33,35,37,39,41,43,45,47,49,51,53,55,57,59,-1,-1,-1,-1,-1,-1,-1,-1,-1,-1,-1,-1,-1,-1,-1,-1,-1,-1,-1,-1,-1,-1,-1,-1,-1,-1,-1,-1,-1,-1],"loss_changes":[2.6240027E4,4.384963E3,1.1332489E4,7.83209E2,3.1157603E3,2.2980586E3,9.413762E3,1.8291797E2,8.439175E2,1.760413E3,9.759136E2,9.918572E2,1.3240281E3,7.195301E3,5.142385E2,0E0,1.0664111E2,1.3627197E2,2.2562483E3,3.2829875E3,1.7813647E2,1.2051294E3,8.402779E1,1.3044263E2,8.1657715E2,1.0248154E3,5.6718075E1,2.3892715E3,5.4663906E3,3.223281E2,2.6756165E2,0E0,0E0,0E0,0E0,0E0,0E0,0E0,0E0,0E0,0E0,0E0,0E0,0E0,0E0,0E0,0E0,0E0,0E0,0E0,0E0,0E0,0E0,0E0,0E0,0E0,0E0,0E0,0E0,0E0,0E0],"parents":[2147483647,0,0,1,1,2,2,3,3,4,4,5,5,6,6,7,7,8,8,9,9,10,10,11,11,12,12,13,13,14,14,16,16,17,17,18,18,19,19,20,20,21,21,22,22,23,23,24,24,25,25,26,26,27,27,28,28,29,29,30,30],"right_children":[2,4,6,8,10,12,14,16,18,20,22,24,26,28,30,-1,32,34,36,38,40,42,44,46,48,50,52,54,56,58,60,-1,-1,-1,-1,-1,-1,-1,-1,-1,-1,-1,-1,-1,-1,-1,-1,-1,-1,-1,-1,-1,-1,-1,-1,-1,-1,-1,-1,-1,-1],"split_conditions":[9.02E0,4.85E0,4.1E0,2.07E0,8.9E0,1.351E1,3E0,8.9E-1,2E0,3E0,3E0,1.1E0,3E0,2E0,1.342E1,-5.175854E-1,8.1E0,1.2551E4,3E0,2E0,4.5E0,2E0,8.21E3,2.627E4,1.2903E4,1.1E0,1.9358E4,8.6E0,9.47E3,8.5E0,9.845E3,-4.0536705E-1,-2.6760826E-1,-4.9469247E-1,-3.4618828E-1,-1.0455505E-2,-3.8660488E-1,-2.3352961E-1,1.6998057E-1,-3.5717043E-1,-2.2510612E-1,1.5697552E-1,7.811724E-1,-2.1062596E-1,5.0856657E-2,-3.2532004E-1,-5.7861168E-2,-1.7165148E-1,9.201469E-2,-4.0268227E-2,6.028435E-1,-1.3195626E-1,4.7822013E-2,1.8820606E-1,7.633676E-1,4.209612E-1,1.1681867E0,-5.9356224E-2,1.7822713E-1,2.5792016E-2,3.378501E-1],"split_indices":[0,0,1,0,1,0,4,0,4,4,4,1,4,4,0,0,1,2,4,4,1,4,2,2,2,1,2,1,2,1,2,0,0,0,0,0,0,0,0,0,0,0,0,0,0,0,0,0,0,0,0,0,0,0,0,0,0,0,0,0,0],"split_type":[0,0,0,0,0,0,0,0,0,0,0,0,0,0,0,0,0,0,0,0,0,0,0,0,0,0,0,0,0,0,0,0,0,0,0,0,0,0,0,0,0,0,0,0,0,0,0,0,0,0,0,0,0,0,0,0,0,0,0,0,0],"sum_hessian":[5E3,2.869E3,2.131E3,1.461E3,1.408E3,8.75E2,1.256E3,5.3E2,9.31E2,1.232E3,1.76E2,6.62E2,2.13E2,8.32E2,4.24E2,1.39E2,3.91E2,2.94E2,6.37E2,8.06E2,4.26E2,1.24E2,5.2E1,1.88E2,4.74E2,1.39E2,7.4E1,3.83E2,4.49E2,2.96E2,1.28E2,3.12E2,7.9E1,1.09E2,1.85E2,3.21E2,3.16E2,4.2E2,3.86E2,2.12E2,2.14E2,6.2E1,6.2E1,1.8E1,3.4E1,1.67E2,2.1E1,2.1E2,2.64E2,3.2E1,1.07E2,4.7E1,2.7E1,2.87E2,9.6E1,1.47E2,3.02E2,2.2E2,7.6E1,4E1,8.8E1],"tree_param":{"num_deleted":"0","num_feature":"5","num_nodes":"61","size_leaf_vector":"1"}},{"base_weights":[3.1386518E-3,-1.1433873E0,3.9049573E0,-2.6980429E0,7.292327E-2,5.630339E0,4.4389045E-1,-3.329689E0,-1.7781258E0,-6.8192023E-1,3.3843138E0,1.4251419E0,7.7846518E0,-4.963036E-1,2.2698193E0,-4.239448E0,-2.9529674E0,-3.6785965E0,-1.2729411E0,-2.0250568E0,4.6884716E-1,4.81456E0,3.4376195E-1,-6.317263E-1,3.4869072E0,4.4525537E0,1.0528935E1,-1.3492283E0,3.8813722E-1,1.8238299E0,4.60927E0,-4.5084286E-1,-3.7464958E-1,-2.4783038E-1,-3.8627958E-1,-4.0832978E-1,-2.8526115E-1,-2.8926083E-1,-5.450033E-2,-2.8620777E-1,-1.3645425E-1,1.5643278E-1,-1.7443979E-1,3.224053E-1,9.403693E-1,-1.912229E-1,8.210215E-2,-3.2106483E-1,3.521991E-2,3.668772E-2,6.111406E-1,1.1204916E-1,6.5005606E-1,7.521691E-1,1.4811542E0,-2.4667905E-1,-8.851083E-2,-1.8949777E-2,2.127155E-1,7.559468E-2,2.579559E-1,3.0093116E-1,5.908298E-1],"categories":[],"categories_nodes":[],"categories_segments":[],"categories_sizes":[],"default_left":[0,0,0,0,0,0,0,0,0,0,0,0,0,0,0,0,0,0,0,0,0,0,0,0,0,0,0,0,0,0,0,0,0,0,0,0,0,0,0,0,0,0,0,0,0,0,0,0,0,0,0,0,0,0,0,0,0,0,0,0,0,0,0],"id":19,"left_children":[1,3,5,7,9,11,13,15,17,19,21,23,25,27,29,31,33,35,37,39,41,43,45,47,49,51,53,55,57,59,61,-1,-1,-1,-1,-1,-1,-1,-1,-1,-1,-1,-1,-1,-1,-1,-1,-1,-1,-1,-1,-1,-1,-1,-1,-1,-1,-1,-1,-1,-1,-1,-1],"loss_changes":[2.237662E4,7.310586E3,6.7813086E3,9.801426E2,5.4264004E3,6.8558633E3,6.5176624E2,3.319209E2,6.606587E2,2.7336372E3,1.7508857E3,1.0963239E3,4.534373E3,1.898684E2,1.2618823E2,2.1827148E1,2.9877637E2,3.6822144E1,6.4570374E2,4.4723193E2,2.3133408E3,1.9696211E3,1.415401E2,3.310015E2,1.0540763E3,1.5486074E3,3.4173965E3,6.420802E1,1.2496327E2,8.682333E1,2.3787903E1,0E0,0E0,0E0,0E0,0E0,0E0,0E0,0E0,0E0,0E0,0E0,0E0,0E0,0E0,0E0,0E0,0E0,0E0,0E0,0E0,0E0,0E0,0E0,0E0,0E0,0E0,0E0,0E0,0E0,0E0,0E0,0E0],"parents":[2147483647,0,0,1,1,2,2,3,3,4,4,5,5,6,6,7,7,8,8,9,9,10,10,11,11,12,12,13,13,14,14,15,15,16,16,17,17,18,18,19,19,20,20,21,21,22,22,23,23,24,24,25,25,26,26,27,27,28,28,29,29,30,30],"right_children":[2,4,6,8,10,12,14,16,18,20,22,24,26,28,30,32,34,36,38,40,42,44,46,48,50,52,54,56,58,60,62,-1,-1,-1,-1,-1,-1,-1,-1,-1,-1,-1,-1,-1,-1,-1,-1,-1,-1,-1,-1,-1,-1,-1,-1,-1,-1,-1,-1,-1,-1,-1,-1],"split_conditions":[1.177E1,5.49E0,3E0,6.1E0,8.2E0,3.3E0,6.6E0,1.8E0,1.48E0,1.4484E4,3E0,1.5088E4,2E0,3.4E0,1.46E1,1.8547E4,3E0,1.07E0,2E0,3.5E0,3E0,2.1756E4,6.187E3,8E-1,2E0,1.2777E4,1.7325E4,7E-1,1.427E1,1.3475E4,8.8E0,-4.5084286E-1,-3.7464958E-1,-2.4783038E-1,-3.8627958E-1,-4.0832978E-1,-2.8526115E-1,-2.8926083E-1,-5.450033E-2,-2.8620777E-1,-1.3645425E-1,1.5643278E-1,-1.7443979E-1,3.224053E-1,9.403693E-1,-1.912229E-1,8.210215E-2,-3.2106483E-1,3.521991E-2,3.668772E-2,6.111406E-1,1.1204916E-1,6.5005606E-1,7.521691E-1,1.4811542E0,-2.4667905E-1,-8.851083E-2,-1.8949777E-2,2.127155E-1,7.559468E-2,2.579559E-1,3.0093116E-1,5.908298E-1],"split_indices":[0,0,4,1,1,1,1,1,0,2,4,2,4,1,0,2,4,0,4,1,4,2,2,1,4,2,2,1,0,2,1,0,0,0,0,0,0,0,0,0,0,0,0,0,0,0,0,0,0,0,0,0,0,0,0,0,0,0,0,0,0,0,0],"split_type":[0,0,0,0,0,0,0,0,0,0,0,0,0,0,0,0,0,0,0,0,0,0,0,0,0,0,0,0,0,0,0,0,0,0,0,0,0,0,0,0,0,0,0,0,0,0,0,0,0,0,0,0,0,0,0,0,0,0,0,0,0,0,0],"sum_hessian":[5E3,3.865E3,1.135E3,1.696E3,2.169E3,7.57E2,3.78E2,1.004E3,6.92E2,1.767E3,4.02E2,2.57E2,5E2,2.5E2,1.28E2,2.91E2,7.13E2,1.44E2,5.48E2,8.15E2,9.52E2,2.73E2,1.29E2,1.29E2,1.28E2,2.27E2,2.73E2,1.27E2,1.23E2,1.09E2,1.9E1,1.83E2,1.08E2,4.71E2,2.42E2,9.4E1,5E1,1.69E2,3.79E2,3.58E2,4.57E2,6.37E2,3.15E2,2.04E2,6.9E1,2.2E1,1.07E2,3.5E1,9.4E1,5.9E1,6.9E1,8.7E1,1.4E2,1.62E2,1.11E2,3.6E1,9.1E1,9.3E1,3E1,4.6E1,6.3E1,1E1,9E0],"tree_param":{"num_deleted":"0","num_feature":"5","num_nodes":"63","size_leaf_vector":"1"}},{"base_weights":[3.3561196E-3,-1.02951E0,3.5183713E0,-2.1892948E0,3.0843177E-1,2.3120005E0,7.850969E0,-3.381412E0,-1.7376245E0,-1.1519924E0,1.9135145E0,1.2618817E0,5.1834946E0,1.0525495E1,2.340942E0,-4.158375E0,-3.0131993E0,-2.15437E0,8.384939E-2,-2.8198826E0,-5.864955E-1,3.098914E0,-5.2315307E-1,1.3756938E-1,3.315225E0,7.4995484E0,1.0774753E0,6.776298E0,1.3852049E1,1.6410005E0,4.4287105E0,-4.498394E-1,-3.6872607E-1,-3.369384E-1,-2.1964486E-1,-2.793018E-1,-1.13094606E-1,1.0903317E-1,-1.8067281E-1,-3.6880141E-1,-2.1416667E-1,-1.5970498E-1,6.737377E-2,9.730253E-2,5.358469E-1,-8.339321E-2,2.0100306E-1,-2.602968E-1,7.0714675E-2,5.038805E-1,1.2190434E-2,3.9266476E-1,1.026964E0,-2.4954187E-2,2.2121611E-1,4.5941254E-1,9.593528E-1,1.0794083E0,2.100404E0,-8.422364E-2,1.91717E-1,1.6128503E-1,4.8307535E-1],"categories":[],"categories_nodes":[],"categories_segments":[],"categories_sizes":[],"default_left":[0,0,0,0,0,0,0,0,0,0,0,0,0,0,0,0,0,0,0,0,0,0,0,0,0,0,0,0,0,0,0,0,0,0,0,0,0,0,0,0,0,0,0,0,0,0,0,0,0,0,0,0,0,0,0,0,0,0,0,0,0,0,0],"id":20,"left_children":[1,3,5,7,9,11,13,15,17,19,21,23,25,27,29,31,33,35,37,39,41,43,45,47,49,51,53,55,57,59,61,-1,-1,-1,-1,-1,-1,-1,-1,-1,-1,-1,-1,-1,-1,-1,-1,-1,-1,-1,-1,-1,-1,-1,-1,-1,-1,-1,-1,-1,-1,-1,-1],"loss_changes":[1.8159953E4,5.9996416E3,5.9194033E3,1.1092422E3,4.212211E3,2.6771738E3,3.6153262E3,1.4996729E2,1.1418535E3,8.85885E2,2.4741128E3,1.507059E3,2.2552432E3,1.9764707E3,1.12560394E2,1.224707E1,1.0576489E2,7.9685693E2,5.366659E2,1.3223132E2,8.976439E2,2.7616377E3,2.228964E2,6.621217E2,1.2707971E3,1.4640576E3,1.3155206E2,4.477412E2,1.6760176E3,4.4819733E1,1.4850647E1,0E0,0E0,0E0,0E0,0E0,0E0,0E0,0E0,0E0,0E0,0E0,0E0,0E0,0E0,0E0,0E0,0E0,0E0,0E0,0E0,0E0,0E0,0E0,0E0,0E0,0E0,0E0,0E0,0E0,0E0,0E0,0E0],"parents":[2147483647,0,0,1,1,2,2,3,3,4,4,5,5,6,6,7,7,8,8,9,9,10,10,11,11,12,12,13,13,14,14,15,15,16,16,17,17,18,18,19,19,20,20,21,21,22,22,23,23,24,24,25,25,26,26,27,27,28,28,29,29,30,30],"right_children":[2,4,6,8,10,12,14,16,18,20,22,24,26,28,30,32,34,36,38,40,42,44,46,48,50,52,54,56,58,60,62,-1,-1,-1,-1,-1,-1,-1,-1,-1,-1,-1,-1,-1,-1,-1,-1,-1,-1,-1,-1,-1,-1,-1,-1,-1,-1,-1,-1,-1,-1,-1,-1],"split_conditions":[1.177E1,6.67E0,7.9E0,2.19E0,5.4E0,2.2311E4,3E0,1.02E0,8.2E0,1.3E0,3E0,1.388E1,3E0,2E0,1.427E1,6.4E0,6.8E0,1.948E4,3E0,6E-1,1.7325E4,1.5774E4,9.6E0,1.1E0,3E0,2E0,4.1E0,1.4E1,1.409E1,3.51E3,8.498E3,-4.498394E-1,-3.6872607E-1,-3.369384E-1,-2.1964486E-1,-2.793018E-1,-1.13094606E-1,1.0903317E-1,-1.8067281E-1,-3.6880141E-1,-2.1416667E-1,-1.5970498E-1,6.737377E-2,9.730253E-2,5.358469E-1,-8.339321E-2,2.0100306E-1,-2.602968E-1,7.0714675E-2,5.038805E-1,1.2190434E-2,3.9266476E-1,1.026964E0,-2.4954187E-2,2.2121611E-1,4.5941254E-1,9.593528E-1,1.0794083E0,2.100404E0,-8.422364E-2,1.91717E-1,1.6128503E-1,4.8307535E-1],"split_indices":[0,0,1,0,1,2,4,0,1,1,4,0,4,4,0,1,1,2,4,1,2,2,1,1,4,4,1,0,0,2,2,0,0,0,0,0,0,0,0,0,0,0,0,0,0,0,0,0,0,0,0,0,0,0,0,0,0,0,0,0,0,0,0],"split_type":[0,0,0,0,0,0,0,0,0,0,0,0,0,0,0,0,0,0,0,0,0,0,0,0,0,0,0,0,0,0,0,0,0,0,0,0,0,0,0,0,0,0,0,0,0,0,0,0,0,0,0,0,0,0,0,0,0,0,0,0,0,0,0],"sum_hessian":[5E3,3.865E3,1.135E3,2.07E3,1.795E3,8.89E2,2.46E2,5.67E2,1.503E3,9.4E2,8.55E2,6.52E2,2.37E2,1.65E2,8.1E1,1.79E2,3.88E2,1.223E3,2.8E2,2.37E2,7.03E2,5.75E2,2.8E2,4.22E2,2.3E2,1.51E2,8.6E1,7.9E1,8.6E1,6.2E1,1.9E1,9.9E1,8E1,2.68E2,1.2E2,7.52E2,4.71E2,1.83E2,9.7E1,1.02E2,1.35E2,3.9E2,3.13E2,2.97E2,2.78E2,2.5E2,3E1,7.2E1,3.5E2,1.49E2,8.1E1,6.7E1,8.4E1,4E1,4.6E1,4.6E1,3.3E1,6.2E1,2.4E1,6E0,5.6E1,3E0,1.6E1],"tree_param":{"num_deleted":"0","num_feature":"5","num_nodes":"63","size_leaf_vector":"1"}},{"base_weights":[4.126169E-3,-1.2361894E0,2.4111087E0,-2.2763283E0,-2.5528416E-1,1.7164797E0,7.557309E0,-3.2320242E0,-1.8460649E0,-8.690226E-1,2.4886122E0,2.805445E0,-4.47544E-1,1.0181809E1,2.4627974E0,-3.9806075E0,-2.8329685E0,-5.5925673E-1,-3.1249099E0,-1.5342665E0,7.303381E-1,3.6185374E0,-4.1699116E-3,1.9004443E0,7.2652674E0,-1.4946575E0,3.3934507E-1,7.708594E0,1.573932E1,1.8641568E0,4.724206E0,-4.089233E-1,-2.7624366E-1,-3.228828E-1,-2.2082523E-1,-2.5065973E-1,3.1164264E-2,-3.3096537E-1,-2.2405373E-1,-2.645672E-1,-9.6252464E-2,1.7540692E-1,-1.4555496E-1,1.5030973E-1,5.883691E-1,-1.2211742E-1,8.9264326E-2,6.0497303E-2,4.380172E-1,2.2454345E-1,9.02839E-1,-1.9652967E-1,-5.457986E-2,-8.4424846E-2,8.558469E-2,4.283966E-1,1.0392256E0,1.0860307E0,2.007532E0,5.619526E-4,2.3084676E-1,2.4675496E-1,6.108255E-1],"categories":[],"categories_nodes":[],"categories_segments":[],"categories_sizes":[],"default_left":[0,0,0,0,0,0,0,0,0,0,0,0,0,0,0,0,0,0,0,0,0,0,0,0,0,0,0,0,0,0,0,0,0,0,0,0,0,0,0,0,0,0,0,0,0,0,0,0,0,0,0,0,0,0,0,0,0,0,0,0,0,0,0],"id":21,"left_children":[1,3,5,7,9,11,13,15,17,19,21,23,25,27,29,31,33,35,37,39,41,43,45,47,49,51,53,55,57,59,61,-1,-1,-1,-1,-1,-1,-1,-1,-1,-1,-1,-1,-1,-1,-1,-1,-1,-1,-1,-1,-1,-1,-1,-1,-1,-1,-1,-1,-1,-1,-1,-1],"loss_changes":[1.4933055E4,3.3673555E3,6.0675938E3,6.5277637E2,2.8650215E3,3.5360762E3,2.6757744E3,1.368916E2,1.8199629E3,1.4800319E3,8.759957E2,4.0142627E3,4.1496014E2,1.7067451E3,8.5957306E1,1.1198975E1,7.373706E1,9.386347E2,8.326221E1,6.214524E2,9.1779724E2,1.0166008E3,1.0804978E2,2.6668674E3,1.466625E3,9.5386505E1,1.767851E2,8.193916E2,6.281914E2,4.70558E1,2.8654144E1,0E0,0E0,0E0,0E0,0E0,0E0,0E0,0E0,0E0,0E0,0E0,0E0,0E0,0E0,0E0,0E0,0E0,0E0,0E0,0E0,0E0,0E0,0E0,0E0,0E0,0E0,0E0,0E0,0E0,0E0,0E0,0E0],"parents":[2147483647,0,0,1,1,2,2,3,3,4,4,5,5,6,6,7,7,8,8,9,9,10,10,11,11,12,12,13,13,14,14,15,15,16,16,17,17,18,18,19,19,20,20,21,21,22,22,23,23,24,24,25,25,26,26,27,27,28,28,29,29,30,30],"right_children":[2,4,6,8,10,12,14,16,18,20,22,24,26,28,30,32,34,36,38,40,42,44,46,48,50,52,54,56,58,60,62,-1,-1,-1,-1,-1,-1,-1,-1,-1,-1,-1,-1,-1,-1,-1,-1,-1,-1,-1,-1,-1,-1,-1,-1,-1,-1,-1,-1,-1,-1,-1,-1],"split_conditions":[1.021E1,5.22E0,8.8E0,2E0,8.3E0,3E0,3E0,1.0837E4,3E0,2.1982E4,3E0,1.416E1,3.7E0,1.367E1,1.416E1,9.4E0,6E0,1.97E0,8.5E0,2E0,3E0,2E0,1.3104E4,1.995E4,2.7E0,1.336E1,9.693E3,2E0,2E0,7.729E3,1.4484E4,-4.089233E-1,-2.7624366E-1,-3.228828E-1,-2.2082523E-1,-2.5065973E-1,3.1164264E-2,-3.3096537E-1,-2.2405373E-1,-2.645672E-1,-9.6252464E-2,1.7540692E-1,-1.4555496E-1,1.5030973E-1,5.883691E-1,-1.2211742E-1,8.9264326E-2,6.0497303E-2,4.380172E-1,2.2454345E-1,9.02839E-1,-1.9652967E-1,-5.457986E-2,-8.4424846E-2,8.558469E-2,4.283966E-1,1.0392256E0,1.0860307E0,2.007532E0,5.619526E-4,2.3084676E-1,2.4675496E-1,6.108255E-1],"split_indices":[0,0,1,4,1,4,4,2,4,2,4,0,1,0,0,1,1,0,1,4,4,4,2,2,1,0,2,4,4,2,2,0,0,0,0,0,0,0,0,0,0,0,0,0,0,0,0,0,0,0,0,0,0,0,0,0,0,0,0,0,0,0,0],"split_type":[0,0,0,0,0,0,0,0,0,0,0,0,0,0,0,0,0,0,0,0,0,0,0,0,0,0,0,0,0,0,0,0,0,0,0,0,0,0,0,0,0,0,0,0,0,0,0,0,0,0,0,0,0,0,0,0,0,0,0,0,0,0,0],"sum_hessian":[5E3,3.3E3,1.7E3,1.601E3,1.699E3,1.499E3,2.01E2,4.95E2,1.106E3,1.389E3,3.1E2,9.97E2,5.02E2,1.32E2,6.9E1,1.69E2,3.26E2,5.52E2,5.54E2,9.81E2,4.08E2,2.13E2,9.7E1,8.3E2,1.67E2,2.15E2,2.87E2,9.3E1,3.9E1,5.6E1,1.3E1,1.53E2,1.6E1,1.97E2,1.29E2,1.7E2,3.82E2,4.56E2,9.8E1,3.32E2,6.49E2,2.78E2,1.3E2,1.11E2,1.02E2,4.1E1,5.6E1,5.46E2,2.84E2,4.4E1,1.23E2,1.43E2,7.2E1,8.7E1,2E2,4.2E1,5.1E1,2E1,1.9E1,1.1E1,4.5E1,6E0,7E0],"tree_param":{"num_deleted":"0","num_feature":"5","num_nodes":"63","size_leaf_vector":"1"}},{"base_weights":[4.7926106E-3,-7.2770494E-1,3.4217265E0,-1.7634962E0,3.7701914E-1,8.234868E-1,5.054893E0,-3.0892448E0,-1.4026753E0,-9.371233E-1,1.8338462E0,-1.7710614E0,1.7996476E0,6.947925E0,1.3642969E0,-3.7403398E0,-2.6788595E0,-8.458309E-1,-2.4816039E0,-2.742003E0,-5.1134324E-1,7.5438386E-1,3.903819E0,-2.8579082E0,-6.234079E-1,-6.2842906E-1,2.9527514E0,3.8422825E0,9.613E0,7.656023E-1,2.8025079E0,-4.000558E-1,-3.3555803E-1,-3.1640515E-1,-2.3052283E-1,-2.300996E-1,5.7446558E-2,-2.8628686E-1,-1.9583318E-1,-3.5486493E-1,-2.3182173E-1,-2.2070625E-1,4.499435E-3,3.0134043E-2,3.6183372E-1,5.41607E-1,6.981142E-2,-3.0896184E-1,4.6330597E-2,-1.5215664E-1,-1.3462396E-3,-9.620836E-2,1.3702582E-1,4.1059414E-1,1.2604046E-2,7.506384E-2,5.6606764E-1,5.771513E-1,1.267523E0,-9.691992E-2,1.10253945E-1,-7.6914155E-3,3.0978963E-1],"categories":[],"categories_nodes":[],"categories_segments":[],"categories_sizes":[],"default_left":[0,0,0,0,0,0,0,0,0,0,0,0,0,0,0,0,0,0,0,0,0,0,0,0,0,0,0,0,0,0,0,0,0,0,0,0,0,0,0,0,0,0,0,0,0,0,0,0,0,0,0,0,0,0,0,0,0,0,0,0,0,0,0],"id":22,"left_children":[1,3,5,7,9,11,13,15,17,19,21,23,25,27,29,31,33,35,37,39,41,43,45,47,49,51,53,55,57,59,61,-1,-1,-1,-1,-1,-1,-1,-1,-1,-1,-1,-1,-1,-1,-1,-1,-1,-1,-1,-1,-1,-1,-1,-1,-1,-1,-1,-1,-1,-1,-1,-1],"loss_changes":[1.2519473E4,4.7138857E3,3.7427227E3,1.01265576E3,3.819188E3,8.693694E2,3.7771582E3,1.1128906E2,1.00303174E3,8.0473535E2,2.1108518E3,1.154668E2,6.990119E2,2.9261465E3,1.5714847E2,3.8967285E0,4.382776E1,2.2850984E3,1.07911865E2,6.0142334E1,8.019828E2,8.0724915E2,1.566916E3,3.837027E1,2.572742E1,5.533486E1,5.503777E2,9.3459546E2,2.1854414E3,7.822511E1,4.6167816E1,0E0,0E0,0E0,0E0,0E0,0E0,0E0,0E0,0E0,0E0,0E0,0E0,0E0,0E0,0E0,0E0,0E0,0E0,0E0,0E0,0E0,0E0,0E0,0E0,0E0,0E0,0E0,0E0,0E0,0E0,0E0,0E0],"parents":[2147483647,0,0,1,1,2,2,3,3,4,4,5,5,6,6,7,7,8,8,9,9,10,10,11,11,12,12,13,13,14,14,15,15,16,16,17,17,18,18,19,19,20,20,21,21,22,22,23,23,24,24,25,25,26,26,27,27,28,28,29,29,30,30],"right_children":[2,4,6,8,10,12,14,16,18,20,22,24,26,28,30,32,34,36,38,40,42,44,46,48,50,52,54,56,58,60,62,-1,-1,-1,-1,-1,-1,-1,-1,-1,-1,-1,-1,-1,-1,-1,-1,-1,-1,-1,-1,-1,-1,-1,-1,-1,-1,-1,-1,-1,-1,-1,-1],"split_conditions":[1.249E1,6.84E0,3.8E0,2.2E0,5.4E0,1E0,3E0,9E-1,3E0,6.631E3,2.062E4,5E-1,9.845E3,2E0,2.242E4,5E-1,3.18E0,2E0,4.02E0,2E0,1.3E0,9.4E0,3E0,2.6373E4,1.1084E4,1.46E1,3E0,1.2105E4,1.2903E4,5.768E3,1.3E1,-4.000558E-1,-3.3555803E-1,-3.1640515E-1,-2.3052283E-1,-2.300996E-1,5.7446558E-2,-2.8628686E-1,-1.9583318E-1,-3.5486493E-1,-2.3182173E-1,-2.2070625E-1,4.499435E-3,3.0134043E-2,3.6183372E-1,5.41607E-1,6.981142E-2,-3.0896184E-1,4.6330597E-2,-1.5215664E-1,-1.3462396E-3,-9.620836E-2,1.3702582E-1,4.1059414E-1,1.2604046E-2,7.506384E-2,5.6606764E-1,5.771513E-1,1.267523E0,-9.691992E-2,1.10253945E-1,-7.6914155E-3,3.0978963E-1],"split_indices":[0,0,1,1,1,1,4,1,4,2,2,1,2,4,2,1,0,4,0,4,1,1,4,2,2,0,4,2,2,2,0,0,0,0,0,0,0,0,0,0,0,0,0,0,0,0,0,0,0,0,0,0,0,0,0,0,0,0,0,0,0,0,0],"split_type":[0,0,0,0,0,0,0,0,0,0,0,0,0,0,0,0,0,0,0,0,0,0,0,0,0,0,0,0,0,0,0,0,0,0,0,0,0,0,0,0,0,0,0,0,0,0,0,0,0,0,0,0,0,0,0,0,0,0,0,0,0,0,0],"sum_hessian":[5E3,4.118E3,8.82E2,2.125E3,1.993E3,3.41E2,5.41E2,4.53E2,1.672E3,1.048E3,9.45E2,9.3E1,2.48E2,3.57E2,1.84E2,1.72E2,2.81E2,1.104E3,5.68E2,1.99E2,8.49E2,6.22E2,3.23E2,4.7E1,4.6E1,8E1,1.68E2,1.66E2,1.91E2,1.31E2,5.3E1,9.7E1,7.5E1,1.19E2,1.62E2,5.45E2,5.59E2,3.26E2,2.42E2,6.6E1,1.33E2,2.09E2,6.4E2,5.38E2,8.4E1,2.19E2,1.04E2,4.4E1,3E0,1.8E1,2.8E1,6.9E1,1.1E1,1.19E2,4.9E1,6.2E1,1.04E2,8.6E1,1.05E2,2.1E1,1.1E2,5E0,4.8E1],"tree_param":{"num_deleted":"0","num_feature":"5","num_nodes":"63","size_leaf_vector":"1"}},{"base_weights":[4.5358343E-3,-6.5535605E-1,3.0827806E0,-1.8713682E0,1.18554495E-1,2.3126967E0,8.10476E0,-2.2481759E0,-9.779578E-1,-6.5130407E-1,1.893519E0,1.2010891E0,4.4507146E0,1.059975E1,2.6388693E0,-2.5233586E0,-1.3749055E0,-1.7343535E0,4.277939E-2,-9.080215E-3,-1.8928503E0,9.8526376E-1,4.1700807E0,-3.402815E-1,2.3784425E0,6.051315E0,1.2171257E0,7.090084E0,1.3932162E1,1.9718407E0,5.3111615E0,-3.2825023E-1,-2.3479031E-1,-2.5864053E-1,-8.291865E-2,-2.3876558E-1,-1.16203085E-1,-1.3958344E-1,7.104017E-2,-1.77185E-1,1.8218619E-1,-2.59336E-1,-1.5735565E-1,1.6823308E-1,-5.9315093E-2,5.919717E-1,1.0388203E-1,-2.1629111E-1,3.2561623E-2,3.4610984E-1,3.5037246E-2,2.9511526E-1,8.630914E-1,3.3263303E-2,2.0549157E-1,4.2467114E-1,9.1306937E-1,7.354421E-1,1.6826838E0,1.07282236E-1,3.203266E-1,5.663155E-1,1.5996018E-1],"categories":[],"categories_nodes":[],"categories_segments":[],"categories_sizes":[],"default_left":[0,0,0,0,0,0,0,0,0,0,0,0,0,0,0,0,0,0,0,0,0,0,0,0,0,0,0,0,0,0,0,0,0,0,0,0,0,0,0,0,0,0,0,0,0,0,0,0,0,0,0,0,0,0,0,0,0,0,0,0,0,0,0],"id":23,"left_children":[1,3,5,7,9,11,13,15,17,19,21,23,25,27,29,31,33,35,37,39,41,43,45,47,49,51,53,55,57,59,61,-1,-1,-1,-1,-1,-1,-1,-1,-1,-1,-1,-1,-1,-1,-1,-1,-1,-1,-1,-1,-1,-1,-1,-1,-1,-1,-1,-1,-1,-1,-1,-1],"loss_changes":[1.0160596E4,3.8765493E3,3.396124E3,5.37105E2,3.442009E3,1.8175352E3,1.5675972E3,2.6711865E2,3.6835693E2,1.4009277E3,1.5714778E3,9.190668E2,1.3486636E3,8.368721E2,5.7262085E1,1.0617578E2,1.77685E2,9.967401E1,1.9692351E2,3.7439343E3,1.2989648E2,6.0174023E2,1.1826995E3,2.6771497E2,6.2895386E2,1.3740347E3,6.452614E1,1.9911548E2,6.3786523E2,3.1989822E1,8.630371E-2,0E0,0E0,0E0,0E0,0E0,0E0,0E0,0E0,0E0,0E0,0E0,0E0,0E0,0E0,0E0,0E0,0E0,0E0,0E0,0E0,0E0,0E0,0E0,0E0,0E0,0E0,0E0,0E0,0E0,0E0,0E0,0E0],"parents":[2147483647,0,0,1,1,2,2,3,3,4,4,5,5,6,6,7,7,8,8,9,9,10,10,11,11,12,12,13,13,14,14,15,15,16,16,17,17,18,18,19,19,20,20,21,21,22,22,23,23,24,24,25,25,26,26,27,27,28,28,29,29,30,30],"right_children":[2,4,6,8,10,12,14,16,18,20,22,24,26,28,30,32,34,36,38,40,42,44,46,48,50,52,54,56,58,60,62,-1,-1,-1,-1,-1,-1,-1,-1,-1,-1,-1,-1,-1,-1,-1,-1,-1,-1,-1,-1,-1,-1,-1,-1,-1,-1,-1,-1,-1,-1,-1,-1],"split_conditions":[1.249E1,5.22E0,8.7E0,2.1756E4,7.1E0,1.995E4,3E0,7.8E0,5.7E0,3E0,2.1863E4,3.7E0,3E0,2E0,2.5674E4,1.36E0,2E0,3.1E0,2E0,2E0,9.693E3,3E0,3E0,8E-1,3E0,2E0,4.8E0,1.367E1,1.0673E4,1.416E1,1.7E1,-3.2825023E-1,-2.3479031E-1,-2.5864053E-1,-8.291865E-2,-2.3876558E-1,-1.16203085E-1,-1.3958344E-1,7.104017E-2,-1.77185E-1,1.8218619E-1,-2.59336E-1,-1.5735565E-1,1.6823308E-1,-5.9315093E-2,5.919717E-1,1.0388203E-1,-2.1629111E-1,3.2561623E-2,3.4610984E-1,3.5037246E-2,2.9511526E-1,8.630914E-1,3.3263303E-2,2.0549157E-1,4.2467114E-1,9.1306937E-1,7.354421E-1,1.6826838E0,1.07282236E-1,3.203266E-1,5.663155E-1,1.5996018E-1],"split_indices":[0,0,1,2,1,2,4,1,1,4,2,1,4,4,2,0,4,1,4,4,2,4,4,1,4,4,1,0,2,0,3,0,0,0,0,0,0,0,0,0,0,0,0,0,0,0,0,0,0,0,0,0,0,0,0,0,0,0,0,0,0,0,0],"split_type":[0,0,0,0,0,0,0,0,0,0,0,0,0,0,0,0,0,0,0,0,0,0,0,0,0,0,0,0,0,0,0,0,0,0,0,0,0,0,0,0,0,0,0,0,0,0,0,0,0,0,0,0,0,0,0,0,0,0,0,0,0,0,0],"sum_hessian":[5E3,4.118E3,8.82E2,1.601E3,2.517E3,7.66E2,1.16E2,1.125E3,4.76E2,1.756E3,7.61E2,5.05E2,2.61E2,7.9E1,3.7E1,8.54E2,2.71E2,2.73E2,2.03E2,1.158E3,5.98E2,5.45E2,2.16E2,2.19E2,2.86E2,1.74E2,8.7E1,4E1,3.9E1,3.1E1,6E0,1.57E2,6.97E2,8.3E1,1.88E2,1.26E2,1.47E2,6.4E1,1.39E2,5.9E2,5.68E2,1.85E2,4.13E2,3.78E2,1.67E2,1.38E2,7.8E1,5.8E1,1.61E2,1.86E2,1E2,8E1,9.4E1,4.3E1,4.4E1,1.8E1,2.2E1,1.3E1,2.6E1,1.9E1,1.2E1,5E0,1E0],"tree_param":{"num_deleted":"0","num_feature":"5","num_nodes":"63","size_leaf_vector":"1"}},{"base_weights":[5.195792E-3,-1.0730131E0,1.5798131E0,-1.3403716E0,8.8065606E-1,6.9626683E-1,4.3383627E0,-2.3377252E0,-8.9954257E-1,-6.908241E-1,2.0568867E0,2.1593583E-1,3.594813E0,5.8804045E0,1.2090207E0,-2.974586E0,-2.0342863E0,-1.942969E0,-2.9772568E-1,-1.9254142E0,-2.3906302E-2,3.0228782E0,-1.6840968E-1,-5.439943E-1,1.5516964E0,5.192463E0,6.978076E-1,3.6175764E0,8.742513E0,6.60736E-1,2.8377593E0,-3.4016046E-1,-2.5209925E-1,-1.2960692E-1,-2.7704528E-1,-2.77615E-1,-1.6431396E-1,4.2734604E-2,-1.6394483E-1,-2.5771987E-1,-1.3586968E-1,7.885461E-2,-1.5784894E-1,6.733048E-2,5.5329525E-1,-1.9951294E-1,2.5637968E-2,-1.3822499E-1,2.0004906E-2,-5.7952132E-2,2.4221328E-1,2.328707E-1,7.2850144E-1,-4.068811E-2,1.5857846E-1,2.3983918E-1,6.885791E-1,5.57754E-1,1.1542586E0,-6.703438E-2,1.1710366E-1,1.3321273E-1,3.2195893E-1],"categories":[],"categories_nodes":[],"categories_segments":[],"categories_sizes":[],"default_left":[0,0,0,0,0,0,0,0,0,0,0,0,0,0,0,0,0,0,0,0,0,0,0,0,0,0,0,0,0,0,0,0,0,0,0,0,0,0,0,0,0,0,0,0,0,0,0,0,0,0,0,0,0,0,0,0,0,0,0,0,0,0,0],"id":24,"left_children":[1,3,5,7,9,11,13,15,17,19,21,23,25,27,29,31,33,35,37,39,41,43,45,47,49,51,53,55,57,59,61,-1,-1,-1,-1,-1,-1,-1,-1,-1,-1,-1,-1,-1,-1,-1,-1,-1,-1,-1,-1,-1,-1,-1,-1,-1,-1,-1,-1,-1,-1,-1,-1],"loss_changes":[8.492226E3,1.5519788E3,4.952023E3,1.1462954E3,6.631565E2,2.1446987E3,2.3718994E3,1.4854736E2,1.137898E3,1.2675297E2,4.4118054E2,1.3438014E3,1.0099966E3,2.1056045E3,1.4457903E2,4.1010254E1,2.925901E2,1.6106396E2,1.1204452E3,1.6444763E1,1.288102E2,8.396321E2,4.939769E1,5.2667804E2,8.9184656E2,8.2798535E2,7.813933E1,7.2461304E2,1.2206328E3,8.50121E1,1.92818E1,0E0,0E0,0E0,0E0,0E0,0E0,0E0,0E0,0E0,0E0,0E0,0E0,0E0,0E0,0E0,0E0,0E0,0E0,0E0,0E0,0E0,0E0,0E0,0E0,0E0,0E0,0E0,0E0,0E0,0E0,0E0,0E0],"parents":[2147483647,0,0,1,1,2,2,3,3,4,4,5,5,6,6,7,7,8,8,9,9,10,10,11,11,12,12,13,13,14,14,15,15,16,16,17,17,18,18,19,19,20,20,21,21,22,22,23,23,24,24,25,25,26,26,27,27,28,28,29,29,30,30],"right_children":[2,4,6,8,10,12,14,16,18,20,22,24,26,28,30,32,34,36,38,40,42,44,46,48,50,52,54,56,58,60,62,-1,-1,-1,-1,-1,-1,-1,-1,-1,-1,-1,-1,-1,-1,-1,-1,-1,-1,-1,-1,-1,-1,-1,-1,-1,-1,-1,-1,-1,-1,-1,-1],"split_conditions":[9.28E0,8.9E0,7.7E0,9.936E3,4.53E0,1.416E1,3E0,2E0,3.76E0,1.77E0,3E0,1.9833E4,3E0,1.742E4,2.2644E4,5.768E3,3E0,1.29E0,3E0,1.07E0,3E0,2E0,6.187E3,3.4E0,2.1E0,2E0,3.6E0,1.346E1,2E0,1.096E1,8.4E0,-3.4016046E-1,-2.5209925E-1,-1.2960692E-1,-2.7704528E-1,-2.77615E-1,-1.6431396E-1,4.2734604E-2,-1.6394483E-1,-2.5771987E-1,-1.3586968E-1,7.885461E-2,-1.5784894E-1,6.733048E-2,5.5329525E-1,-1.9951294E-1,2.5637968E-2,-1.3822499E-1,2.0004906E-2,-5.7952132E-2,2.4221328E-1,2.328707E-1,7.2850144E-1,-4.068811E-2,1.5857846E-1,2.3983918E-1,6.885791E-1,5.57754E-1,1.1542586E0,-6.703438E-2,1.1710366E-1,1.3321273E-1,3.2195893E-1],"split_indices":[0,1,1,2,0,0,4,4,0,0,4,2,4,2,2,2,4,0,4,0,4,4,2,1,1,4,1,0,4,0,1,0,0,0,0,0,0,0,0,0,0,0,0,0,0,0,0,0,0,0,0,0,0,0,0,0,0,0,0,0,0,0,0],"split_type":[0,0,0,0,0,0,0,0,0,0,0,0,0,0,0,0,0,0,0,0,0,0,0,0,0,0,0,0,0,0,0,0,0,0,0,0,0,0,0,0,0,0,0,0,0,0,0,0,0,0,0,0,0,0,0,0,0,0,0,0,0,0,0],"sum_hessian":[5E3,2.968E3,2.032E3,2.611E3,3.57E2,1.54E3,4.92E2,7.99E2,1.812E3,1.53E2,2.04E2,1.322E3,2.18E2,3.29E2,1.63E2,2.55E2,5.44E2,6.62E2,1.15E3,5.3E1,1E2,1.42E2,6.2E1,8.43E2,4.79E2,1.4E2,7.8E1,1.85E2,1.44E2,1.23E2,4E1,1.28E2,1.27E2,2.73E2,2.71E2,1.73E2,4.89E2,7.47E2,4.03E2,2.3E1,3E1,6.6E1,3.4E1,7.4E1,6.8E1,1.1E1,5.1E1,3.96E2,4.47E2,1.39E2,3.4E2,6E1,8E1,3.5E1,4.3E1,1.36E2,4.9E1,6.9E1,7.5E1,3.4E1,8.9E1,9E0,3.1E1],"tree_param":{"num_deleted":"0","num_feature":"5","num_nodes":"63","size_leaf_vector":"1"}},{"base_weights":[5.216881E-3,-4.3731952E-1,3.1796117E0,-1.3156612E0,3.8731256E-1,4.5716524E0,6.427506E-1,-2.298546E0,-9.745512E-1,-1.9189909E-3,3.641103E0,3.6356032E0,1.0173172E1,-5.2601033E-1,1.2847407E0,-2.9583223E0,-1.9157553E0,-5.029112E-1,-1.8768748E0,-1.1700785E0,6.8961096E-1,4.956699E0,8.1143147E-1,1.2593579E0,5.4389644E0,6.7880354E0,1.4099219E1,-1.01462E0,6.156371E-1,1.1184375E-1,1.9481395E0,-3.246978E-1,-2.6519835E-1,-2.3090573E-1,-1.4085963E-1,-1.7593795E-1,7.024472E-2,-2.2042666E-1,-1.4231771E-1,-1.9698954E-1,-5.6142926E-2,1.4844087E-1,-8.592651E-2,2.2060418E-1,7.115307E-1,1.4078401E-2,2.2275726E-1,1.6541345E-2,3.7595996E-1,1.0666628E-1,6.960282E-1,2.6480618E-1,7.841305E-1,5.347505E-1,1.5511569E0,-1.363086E-1,1.0325078E-2,-9.2686005E-2,9.704796E-2,-6.800237E-2,4.5125015E-2,1.55421E-1,3.16847E-1],"categories":[],"categories_nodes":[],"categories_segments":[],"categories_sizes":[],"default_left":[0,0,0,0,0,0,0,0,0,0,0,0,0,0,0,0,0,0,0,0,0,0,0,0,0,0,0,0,0,0,0,0,0,0,0,0,0,0,0,0,0,0,0,0,0,0,0,0,0,0,0,0,0,0,0,0,0,0,0,0,0,0,0],"id":25,"left_children":[1,3,5,7,9,11,13,15,17,19,21,23,25,27,29,31,33,35,37,39,41,43,45,47,49,51,53,55,57,59,61,-1,-1,-1,-1,-1,-1,-1,-1,-1,-1,-1,-1,-1,-1,-1,-1,-1,-1,-1,-1,-1,-1,-1,-1,-1,-1,-1,-1,-1,-1,-1,-1],"loss_changes":[7.026721E3,3.1802246E3,2.1582861E3,7.105481E2,2.8685796E3,2.0341172E3,1.6424837E2,1.3248071E2,6.714596E2,1.6358292E3,8.968723E2,1.4501284E3,6.485454E2,4.4134598E1,1.09494E2,8.985962E0,6.636133E1,1.5747958E3,7.7369995E1,3.6546045E2,1.5671624E3,9.640056E2,7.376544E1,4.0417664E2,1.2763462E3,1.18772095E2,2.2606396E2,2.1565437E1,1.4035742E1,1.4282635E1,3.834073E1,0E0,0E0,0E0,0E0,0E0,0E0,0E0,0E0,0E0,0E0,0E0,0E0,0E0,0E0,0E0,0E0,0E0,0E0,0E0,0E0,0E0,0E0,0E0,0E0,0E0,0E0,0E0,0E0,0E0,0E0,0E0,0E0],"parents":[2147483647,0,0,1,1,2,2,3,3,4,4,5,5,6,6,7,7,8,8,9,9,10,10,11,11,12,12,13,13,14,14,15,15,16,16,17,17,18,18,19,19,20,20,21,21,22,22,23,23,24,24,25,25,26,26,27,27,28,28,29,29,30,30],"right_children":[2,4,6,8,10,12,14,16,18,20,22,24,26,28,30,32,34,36,38,40,42,44,46,48,50,52,54,56,58,60,62,-1,-1,-1,-1,-1,-1,-1,-1,-1,-1,-1,-1,-1,-1,-1,-1,-1,-1,-1,-1,-1,-1,-1,-1,-1,-1,-1,-1,-1,-1,-1,-1],"split_conditions":[1.332E1,6.84E0,3E0,2.7E0,9E0,8.7E0,1.1084E4,1E0,3E0,1.1614E4,3E0,2E0,2E0,6.3E0,4.1E0,5E-1,1.6959E4,2E0,4.02E0,5.566E3,3E0,2E0,1.091E1,2.134E4,8.404E3,8.9E0,7.624E3,1.474E1,3.51E3,1E0,2.5897E4,-3.246978E-1,-2.6519835E-1,-2.3090573E-1,-1.4085963E-1,-1.7593795E-1,7.024472E-2,-2.2042666E-1,-1.4231771E-1,-1.9698954E-1,-5.6142926E-2,1.4844087E-1,-8.592651E-2,2.2060418E-1,7.115307E-1,1.4078401E-2,2.2275726E-1,1.6541345E-2,3.7595996E-1,1.0666628E-1,6.960282E-1,2.6480618E-1,7.841305E-1,5.347505E-1,1.5511569E0,-1.363086E-1,1.0325078E-2,-9.2686005E-2,9.704796E-2,-6.800237E-2,4.5125015E-2,1.55421E-1,3.16847E-1],"split_indices":[0,0,4,1,1,1,2,1,4,2,4,4,4,1,1,1,2,4,0,2,4,4,0,2,2,1,2,0,2,1,2,0,0,0,0,0,0,0,0,0,0,0,0,0,0,0,0,0,0,0,0,0,0,0,0,0,0,0,0,0,0,0,0],"split_type":[0,0,0,0,0,0,0,0,0,0,0,0,0,0,0,0,0,0,0,0,0,0,0,0,0,0,0,0,0,0,0,0,0,0,0,0,0,0,0,0,0,0,0,0,0,0,0,0,0,0,0,0,0,0,0,0,0,0,0,0,0,0,0],"sum_hessian":[5E3,4.389E3,6.11E2,2.125E3,2.264E3,3.94E2,2.17E2,5.46E2,1.579E3,2.023E3,2.41E2,3.39E2,5.5E1,7.7E1,1.4E2,1.98E2,3.48E2,1.038E3,5.41E2,7.52E2,1.271E3,1.64E2,7.7E1,1.47E2,1.92E2,3.1E1,2.4E1,5.4E1,2.3E1,5.1E1,8.9E1,9.7E1,1.01E2,1.94E2,1.54E2,5.08E2,5.3E2,3.12E2,2.29E2,3.24E2,4.28E2,8.4E2,4.31E2,7.3E1,9.1E1,5.3E1,2.4E1,1.03E2,4.4E1,5E1,1.42E2,7E0,2.4E1,4E0,2E1,4.1E1,1.3E1,4E0,1.9E1,1.5E1,3.6E1,6.9E1,2E1],"tree_param":{"num_deleted":"0","num_feature":"5","num_nodes":"63","size_leaf_vector":"1"}},{"base_weights":[5.536225E-3,-7.7185875E-1,1.5141637E0,-1.6770045E0,-2.2646445E-1,4.8916462E-1,3.3005102E0,-2.4968474E0,-1.3136433E0,-1.3819746E0,4.0029043E-1,-9.5998186E-1,1.281356E0,4.471249E0,9.430875E-1,-3.1961372E0,-2.1889226E0,-2.0452297E0,-9.2545503E-1,-2.1514475E0,-1.0108786E0,-1.0049436E0,1.1239384E0,-2.2164724E0,-5.021023E-1,-4.865611E-1,2.2106688E0,2.3554554E0,6.153643E0,5.4816383E-1,2.1721847E0,-2.7342162E-1,-3.566296E-1,-2.6895663E-1,-1.8426009E-1,-2.267524E-1,-1.3159792E-1,1.6209489E-2,-1.9720295E-1,-2.6362547E-1,-1.5468536E-1,-7.0463694E-3,-1.9625671E-1,-2.3127556E-1,-6.1568964E-2,1.9648248E-1,-5.0848898E-2,-2.6894483E-1,-1.6057679E-1,-9.3131006E-2,1.4142264E-1,-2.4414782E-1,7.456104E-3,3.305783E-1,-4.4966997E-3,1.2691872E-1,4.5428014E-1,5.141263E-1,1.225708E0,2.3502234E-2,1.8234524E-1,1.9041853E-1,4.2033434E-1],"categories":[],"categories_nodes":[],"categories_segments":[],"categories_sizes":[],"default_left":[0,0,0,0,0,0,0,0,0,0,0,0,0,0,0,0,0,0,0,0,0,0,0,0,0,0,0,0,0,0,0,0,0,0,0,0,0,0,0,0,0,0,0,0,0,0,0,0,0,0,0,0,0,0,0,0,0,0,0,0,0,0,0],"id":26,"left_children":[1,3,5,7,9,11,13,15,17,19,21,23,25,27,29,31,33,35,37,39,41,43,45,47,49,51,53,55,57,59,61,-1,-1,-1,-1,-1,-1,-1,-1,-1,-1,-1,-1,-1,-1,-1,-1,-1,-1,-1,-1,-1,-1,-1,-1,-1,-1,-1,-1,-1,-1,-1,-1],"loss_changes":[5.866339E3,1.6291963E3,3.1129224E3,3.664126E2,1.4931738E3,1.2433674E3,1.7069375E3,7.482861E1,2.4290942E2,2.0484778E2,1.360718E3,2.192352E2,1.1511393E3,1.4591797E3,9.928703E1,9.741211E0,4.133777E1,4.532434E1,6.4340375E2,6.480322E1,4.3929785E2,2.3020337E2,1.2130809E3,2.514392E1,2.3326299E2,2.6564325E2,1.1339607E3,4.338026E2,1.3581523E3,6.2668076E1,1.9213516E1,0E0,0E0,0E0,0E0,0E0,0E0,0E0,0E0,0E0,0E0,0E0,0E0,0E0,0E0,0E0,0E0,0E0,0E0,0E0,0E0,0E0,0E0,0E0,0E0,0E0,0E0,0E0,0E0,0E0,0E0,0E0,0E0],"parents":[2147483647,0,0,1,1,2,2,3,3,4,4,5,5,6,6,7,7,8,8,9,9,10,10,11,11,12,12,13,13,14,14,15,15,16,16,17,17,18,18,19,19,20,20,21,21,22,22,23,23,24,24,25,25,26,26,27,27,28,28,29,29,30,30],"right_children":[2,4,6,8,10,12,14,16,18,20,22,24,26,28,30,32,34,36,38,40,42,44,46,48,50,52,54,56,58,60,62,-1,-1,-1,-1,-1,-1,-1,-1,-1,-1,-1,-1,-1,-1,-1,-1,-1,-1,-1,-1,-1,-1,-1,-1,-1,-1,-1,-1,-1,-1,-1,-1],"split_conditions":[1.021E1,3.9E0,6.3E0,1.2E0,1.1173E4,1.1084E4,3E0,2E0,2E0,2E0,3.97E0,3.994E3,2.1E0,2E0,2.2644E4,5.37E0,5E-1,2.2837E4,3E0,6.872E3,3E0,1.21E0,3E0,1.281E1,1.404E1,5E-1,3E0,2.1044E4,1.427E1,9.3E0,1.474E1,-2.7342162E-1,-3.566296E-1,-2.6895663E-1,-1.8426009E-1,-2.267524E-1,-1.3159792E-1,1.6209489E-2,-1.9720295E-1,-2.6362547E-1,-1.5468536E-1,-7.0463694E-3,-1.9625671E-1,-2.3127556E-1,-6.1568964E-2,1.9648248E-1,-5.0848898E-2,-2.6894483E-1,-1.6057679E-1,-9.3131006E-2,1.4142264E-1,-2.4414782E-1,7.456104E-3,3.305783E-1,-4.4966997E-3,1.2691872E-1,4.5428014E-1,5.141263E-1,1.225708E0,2.3502234E-2,1.8234524E-1,1.9041853E-1,4.2033434E-1],"split_indices":[0,1,1,1,2,2,4,4,4,4,0,2,1,4,2,0,1,2,4,2,4,0,4,0,0,1,4,2,0,1,0,0,0,0,0,0,0,0,0,0,0,0,0,0,0,0,0,0,0,0,0,0,0,0,0,0,0,0,0,0,0,0,0],"split_type":[0,0,0,0,0,0,0,0,0,0,0,0,0,0,0,0,0,0,0,0,0,0,0,0,0,0,0,0,0,0,0,0,0,0,0,0,0,0,0,0,0,0,0,0,0,0,0,0,0,0,0,0,0,0,0,0,0,0,0,0,0,0,0],"sum_hessian":[5E3,3.3E3,1.7E3,1.24E3,2.06E3,1.081E3,6.19E2,3.79E2,8.61E2,7.24E2,1.336E3,3.82E2,6.99E2,4.13E2,2.06E2,1.13E2,2.66E2,2.97E2,5.64E2,2.34E2,4.9E2,4.54E2,8.82E2,1.01E2,2.81E2,2.41E2,4.58E2,1.84E2,2.29E2,1.57E2,4.9E1,5.4E1,5.9E1,1.06E2,1.6E2,2.26E2,7.1E1,2.77E2,2.87E2,1.28E2,1.06E2,2.47E2,2.43E2,1.03E2,3.51E2,5.82E2,3E2,5.5E1,4.6E1,2.3E2,5.1E1,5.3E1,1.88E2,3.08E2,1.5E2,1.24E2,6E1,1.98E2,3.1E1,1.27E2,3E1,4.5E1,4E0],"tree_param":{"num_deleted":"0","num_feature":"5","num_nodes":"63","size_leaf_vector":"1"}},{"base_weights":[5.073285E-3,-4.5894438E-1,2.1696074E0,-7.117872E-1,1.4868867E0,1.6034534E0,5.862519E0,-1.1041471E0,2.5415298E-1,4.5001265E-1,3.2558887E0,-3.477951E-1,2.3690023E0,7.6534534E0,1.9378538E0,-1.841255E0,-7.573105E-1,8.6013424E-1,-9.7242844E-1,-8.5901153E-1,1.3153877E0,-6.337923E-2,3.999105E0,-9.541511E-1,1.0539308E0,2.933593E-1,3.4088523E0,3.9225268E0,9.377186E0,1.4027202E0,4.1073427E0,-3.359298E-1,-1.7436554E-1,1.1425487E-2,-1.614315E-1,-9.506752E-2,2.6532182E-1,-1.2860289E-1,4.809852E-3,-1.7167258E-1,-4.856383E-2,-6.474333E-2,2.0489155E-1,-9.6189134E-2,1.3929386E-1,5.273496E-1,1.3670087E-1,-7.912733E-2,-3.4541807E-1,-1.3575438E-1,2.2094531E-1,-1.3400482E-1,1.16838515E-1,4.741395E-1,8.224698E-2,1.4220889E-1,5.828071E-1,6.246547E-1,1.2276472E0,6.0081042E-2,2.5285262E-1,4.4235644E-1,1.10500716E-1],"categories":[],"categories_nodes":[],"categories_segments":[],"categories_sizes":[],"default_left":[0,0,0,0,0,0,0,0,0,0,0,0,0,0,0,0,0,0,0,0,0,0,0,0,0,0,0,0,0,0,0,0,0,0,0,0,0,0,0,0,0,0,0,0,0,0,0,0,0,0,0,0,0,0,0,0,0,0,0,0,0,0,0],"id":27,"left_children":[1,3,5,7,9,11,13,15,17,19,21,23,25,27,29,31,33,35,37,39,41,43,45,47,49,51,53,55,57,59,61,-1,-1,-1,-1,-1,-1,-1,-1,-1,-1,-1,-1,-1,-1,-1,-1,-1,-1,-1,-1,-1,-1,-1,-1,-1,-1,-1,-1,-1,-1,-1,-1],"loss_changes":[5.0239106E3,2.027563E3,1.8367383E3,1.3821007E3,8.679608E2,1.1465502E3,8.075408E2,6.615215E2,7.8425916E2,3.40969E2,4.319668E2,1.8544366E2,1.1882549E3,4.7770703E2,3.835527E1,1.1696777E2,1.3185256E3,2.2948574E3,1.11755005E2,3.759601E1,2.6192743E2,4.452099E1,4.7245898E2,5.9161102E1,1.8690927E2,2.6598132E2,1.2609526E3,1.20358734E2,4.1345166E2,2.7370262E1,1.7577515E0,0E0,0E0,0E0,0E0,0E0,0E0,0E0,0E0,0E0,0E0,0E0,0E0,0E0,0E0,0E0,0E0,0E0,0E0,0E0,0E0,0E0,0E0,0E0,0E0,0E0,0E0,0E0,0E0,0E0,0E0,0E0,0E0],"parents":[2147483647,0,0,1,1,2,2,3,3,4,4,5,5,6,6,7,7,8,8,9,9,10,10,11,11,12,12,13,13,14,14,15,15,16,16,17,17,18,18,19,19,20,20,21,21,22,22,23,23,24,24,25,25,26,26,27,27,28,28,29,29,30,30],"right_children":[2,4,6,8,10,12,14,16,18,20,22,24,26,28,30,32,34,36,38,40,42,44,46,48,50,52,54,56,58,60,62,-1,-1,-1,-1,-1,-1,-1,-1,-1,-1,-1,-1,-1,-1,-1,-1,-1,-1,-1,-1,-1,-1,-1,-1,-1,-1,-1,-1,-1,-1,-1,-1],"split_conditions":[1.249E1,8.9E0,8.7E0,2.1982E4,8.03E0,8.964E3,3E0,2E0,3E0,1.1535E4,6.511E3,6E0,2.8E0,1.1451E4,2.5674E4,6E-1,3E0,2E0,6.7E0,2E0,2.71E0,5.28E3,3E0,5.8E0,3.51E3,1E0,3E0,1.332E1,2E0,1.416E1,1.7E1,-3.359298E-1,-1.7436554E-1,1.1425487E-2,-1.614315E-1,-9.506752E-2,2.6532182E-1,-1.2860289E-1,4.809852E-3,-1.7167258E-1,-4.856383E-2,-6.474333E-2,2.0489155E-1,-9.6189134E-2,1.3929386E-1,5.273496E-1,1.3670087E-1,-7.912733E-2,-3.4541807E-1,-1.3575438E-1,2.2094531E-1,-1.3400482E-1,1.16838515E-1,4.741395E-1,8.224698E-2,1.4220889E-1,5.828071E-1,6.246547E-1,1.2276472E0,6.0081042E-2,2.5285262E-1,4.4235644E-1,1.10500716E-1],"split_indices":[0,1,1,2,0,2,4,4,4,2,2,1,1,2,2,1,4,4,1,4,0,2,4,1,2,1,4,0,4,0,3,0,0,0,0,0,0,0,0,0,0,0,0,0,0,0,0,0,0,0,0,0,0,0,0,0,0,0,0,0,0,0,0],"split_type":[0,0,0,0,0,0,0,0,0,0,0,0,0,0,0,0,0,0,0,0,0,0,0,0,0,0,0,0,0,0,0,0,0,0,0,0,0,0,0,0,0,0,0,0,0,0,0,0,0,0,0,0,0,0,0,0,0,0,0,0,0,0,0],"sum_hessian":[5E3,4.118E3,8.82E2,3.645E3,4.73E2,7.66E2,